-1.825195252895355225e-01 -1.825195252895355225e-01 -1.122984588146209717e-01 -1.122984588146209717e-01 -1.425771713256835938e-01 -1.425771713256835938e-01 -1.473799049854278564e-01 -1.473799049854278564e-01 -1.708718091249465942e-01 -1.708718091249465942e-01 -2.131965905427932739e-01 -2.131965905427932739e-01 -2.060085833072662354e-01 -2.060085833072662354e-01 -2.049390822649002075e-01 -2.049390822649002075e-01 -2.351175397634506226e-01 -2.351175397634506226e-01 -2.331913262605667114e-01 -2.331913262605667114e-01 -1.987335532903671265e-01 -1.987335532903671265e-01 -2.119205892086029053e-01 -2.119205892086029053e-01 -2.100912034511566162e-01 -2.100912034511566162e-01 -1.976062506437301636e-01 -1.976062506437301636e-01 -2.370413988828659058e-01 -2.370413988828659058e-01 -2.701886892318725586e-01 -2.701886892318725586e-01 -3.055731952190399170e-01 -3.055731952190399170e-01 -2.945867776870727539e-01 -2.945867776870727539e-01 -2.870250940322875977e-01 -2.870250940322875977e-01 -3.099986910820007324e-01 -3.099986910820007324e-01 -2.889027297496795654e-01 -2.889027297496795654e-01 -2.907826602458953857e-01 -2.907826602458953857e-01 -2.644827365875244141e-01 -2.644827365875244141e-01 -2.596397399902343750e-01 -2.596397399902343750e-01 -2.185744643211364746e-01 -2.185744643211364746e-01 -1.685329824686050415e-01 -1.685329824686050415e-01 -1.295053660869598389e-01 -1.295053660869598389e-01 -1.541524231433868408e-01 -1.541524231433868408e-01 -1.711642146110534668e-01 -1.711642146110534668e-01 -1.864035129547119141e-01 -1.864035129547119141e-01 -1.924721896648406982e-01 -1.924721896648406982e-01 -2.152171581983566284e-01 -2.152171581983566284e-01 -2.263607084751129150e-01 -2.263607084751129150e-01 -2.085596770048141479e-01 -2.085596770048141479e-01 -2.126791328191757202e-01 -2.126791328191757202e-01 -1.806859672069549561e-01 -1.806859672069549561e-01 -1.769826710224151611e-01 -1.769826710224151611e-01 -1.764012873172760010e-01 -1.764012873172760010e-01 -1.676431447267532349e-01 -1.676431447267532349e-01 -2.025542706251144409e-01 -2.025542706251144409e-01 -2.741027772426605225e-01 -2.741027772426605225e-01 -3.163725733757019043e-01 -3.163725733757019043e-01 -3.088791966438293457e-01 -3.088791966438293457e-01 -3.230474889278411865e-01 -3.230474889278411865e-01 -3.194776177406311035e-01 -3.194776177406311035e-01 -3.052718043327331543e-01 -3.052718043327331543e-01 -2.736658155918121338e-01 -2.736658155918121338e-01 -2.537748217582702637e-01 -2.537748217582702637e-01 -1.615839898586273193e-01 -1.615839898586273193e-01 -9.913155436515808105e-02 -9.913155436515808105e-02 -4.135778546333312988e-02 -4.135778546333312988e-02 -2.702999114990234375e-02 -2.702999114990234375e-02 -2.477318048477172852e-03 -2.477318048477172852e-03 -9.770739078521728516e-02 -9.770739078521728516e-02 -1.257191300392150879e-01 -1.257191300392150879e-01 -9.512856602668762207e-02 -9.512856602668762207e-02 -1.195743978023529053e-01 -1.195743978023529053e-01 -1.967328935861587524e-01 -1.967328935861587524e-01 -2.057924121618270874e-01 -2.057924121618270874e-01 -2.160143852233886719e-01 -2.160143852233886719e-01 -2.582731842994689941e-01 -2.582731842994689941e-01 -1.976059526205062866e-01 -1.976059526205062866e-01 -1.541412472724914551e-01 -1.541412472724914551e-01 -1.784183233976364136e-01 -1.784183233976364136e-01 -2.221182435750961304e-01 -2.221182435750961304e-01 -2.474257200956344604e-01 -2.474257200956344604e-01 -3.181813657283782959e-01 -3.181813657283782959e-01 -3.030793070793151855e-01 -3.030793070793151855e-01 -2.900532782077789307e-01 -2.900532782077789307e-01 -3.231386542320251465e-01 -3.231386542320251465e-01 -2.913441061973571777e-01 -2.913441061973571777e-01 -2.462295144796371460e-01 -2.462295144796371460e-01 -1.626253724098205566e-01 -1.626253724098205566e-01 -1.060550808906555176e-01 -1.060550808906555176e-01 -1.425254344940185547e-02 -1.425254344940185547e-02 1.800709962844848633e-02 1.800709962844848633e-02 -4.186806082725524902e-02 -4.186806082725524902e-02 -1.510867178440093994e-01 -1.510867178440093994e-01 -1.674844771623611450e-01 -1.674844771623611450e-01 -1.523629128932952881e-01 -1.523629128932952881e-01 -1.802106350660324097e-01 -1.802106350660324097e-01 -2.178536206483840942e-01 -2.178536206483840942e-01 -1.975349932909011841e-01 -1.975349932909011841e-01 -2.113374322652816772e-01 -2.113374322652816772e-01 -2.510416507720947266e-01 -2.510416507720947266e-01 -1.982937008142471313e-01 -1.982937008142471313e-01 -1.246156692504882812e-01 -1.246156692504882812e-01 -2.160553336143493652e-01 -2.160553336143493652e-01 -2.981796562671661377e-01 -2.981796562671661377e-01 -2.786461114883422852e-01 -2.786461114883422852e-01 -2.713773250579833984e-01 -2.713773250579833984e-01 -3.059489428997039795e-01 -3.059489428997039795e-01 -3.289360702037811279e-01 -3.289360702037811279e-01 -3.282707333564758301e-01 -3.282707333564758301e-01 -2.953687012195587158e-01 -2.953687012195587158e-01 -2.228591591119766235e-01 -2.228591591119766235e-01 -1.459379196166992188e-01 -1.459379196166992188e-01 -1.368185579776763916e-01 -1.368185579776763916e-01 -9.845367074012756348e-02 -9.845367074012756348e-02 -8.519607782363891602e-02 -8.519607782363891602e-02 -5.385044217109680176e-02 -5.385044217109680176e-02 -1.562299132347106934e-01 -1.562299132347106934e-01 -2.312583476305007935e-01 -2.312583476305007935e-01 -1.836954057216644287e-01 -1.836954057216644287e-01 -1.698168963193893433e-01 -1.698168963193893433e-01 -1.798655241727828979e-01 -1.798655241727828979e-01 -2.104902416467666626e-01 -2.104902416467666626e-01 -2.472356557846069336e-01 -2.472356557846069336e-01 -2.691443562507629395e-01 -2.691443562507629395e-01 -2.249109745025634766e-01 -2.249109745025634766e-01 -2.447383552789688110e-01 -2.447383552789688110e-01 -2.337781488895416260e-01 -2.337781488895416260e-01 -2.616122961044311523e-01 -2.616122961044311523e-01 -2.723421454429626465e-01 -2.723421454429626465e-01 -2.921722829341888428e-01 -2.921722829341888428e-01 -3.025862574577331543e-01 -3.025862574577331543e-01 -2.996477186679840088e-01 -2.996477186679840088e-01 -3.135037422180175781e-01 -3.135037422180175781e-01 -3.109385669231414795e-01 -3.109385669231414795e-01 -3.002304434776306152e-01 -3.002304434776306152e-01 -2.765101194381713867e-01 -2.765101194381713867e-01 -2.320920079946517944e-01 -2.320920079946517944e-01 -2.175037264823913574e-01 -2.175037264823913574e-01 -1.728500872850418091e-01 -1.728500872850418091e-01 -1.986584812402725220e-01 -1.986584812402725220e-01 -2.082620114088058472e-01 -2.082620114088058472e-01 -2.343493551015853882e-01 -2.343493551015853882e-01 -2.528192400932312012e-01 -2.528192400932312012e-01 -2.839876115322113037e-01 -2.839876115322113037e-01 -2.877143025398254395e-01 -2.877143025398254395e-01 -3.004840910434722900e-01 -3.004840910434722900e-01 -2.709302902221679688e-01 -2.709302902221679688e-01 -2.654172778129577637e-01 -2.654172778129577637e-01 -2.407065629959106445e-01 -2.407065629959106445e-01 -2.439513355493545532e-01 -2.439513355493545532e-01 -2.540268898010253906e-01 -2.540268898010253906e-01 -2.642155885696411133e-01 -2.642155885696411133e-01 -2.523813843727111816e-01 -2.523813843727111816e-01 -2.644987106323242188e-01 -2.644987106323242188e-01 -3.177196681499481201e-01 -3.177196681499481201e-01 -3.286892175674438477e-01 -3.286892175674438477e-01 -3.199695348739624023e-01 -3.199695348739624023e-01 -3.268357813358306885e-01 -3.268357813358306885e-01 -3.197062611579895020e-01 -3.197062611579895020e-01 -2.835966348648071289e-01 -2.835966348648071289e-01 -2.632714509963989258e-01 -2.632714509963989258e-01 -2.598023414611816406e-01 -2.598023414611816406e-01 -2.241441756486892700e-01 -2.241441756486892700e-01 -1.987304985523223877e-01 -1.987304985523223877e-01 -2.220483124256134033e-01 -2.220483124256134033e-01 -2.149841338396072388e-01 -2.149841338396072388e-01 -2.256599813699722290e-01 -2.256599813699722290e-01 -2.740991711616516113e-01 -2.740991711616516113e-01 -2.754225730895996094e-01 -2.754225730895996094e-01 -2.373563051223754883e-01 -2.373563051223754883e-01 -2.528800964355468750e-01 -2.528800964355468750e-01 -2.482332587242126465e-01 -2.482332587242126465e-01 -2.343571931123733521e-01 -2.343571931123733521e-01 -2.309210747480392456e-01 -2.309210747480392456e-01 -2.104891538619995117e-01 -2.104891538619995117e-01 -2.543953657150268555e-01 -2.543953657150268555e-01 -2.784141302108764648e-01 -2.784141302108764648e-01 -3.039341270923614502e-01 -3.039341270923614502e-01 -3.232565522193908691e-01 -3.232565522193908691e-01 -3.444961905479431152e-01 -3.444961905479431152e-01 -3.347836434841156006e-01 -3.347836434841156006e-01 -3.049957454204559326e-01 -3.049957454204559326e-01 -3.060551881790161133e-01 -3.060551881790161133e-01 -2.603821456432342529e-01 -2.603821456432342529e-01 -2.600895762443542480e-01 -2.600895762443542480e-01 -2.151279449462890625e-01 -2.151279449462890625e-01 -2.068002223968505859e-01 -2.068002223968505859e-01 -2.085445374250411987e-01 -2.085445374250411987e-01 -2.258797287940979004e-01 -2.258797287940979004e-01 -2.351102530956268311e-01 -2.351102530956268311e-01 -2.109892070293426514e-01 -2.109892070293426514e-01 -2.287741154432296753e-01 -2.287741154432296753e-01 -2.967906594276428223e-01 -2.967906594276428223e-01 -2.646786570549011230e-01 -2.646786570549011230e-01 -2.430572658777236938e-01 -2.430572658777236938e-01 -2.858104109764099121e-01 -2.858104109764099121e-01 -2.671716213226318359e-01 -2.671716213226318359e-01 -2.487658262252807617e-01 -2.487658262252807617e-01 -2.213253825902938843e-01 -2.213253825902938843e-01 -2.304407358169555664e-01 -2.304407358169555664e-01 -2.649660706520080566e-01 -2.649660706520080566e-01 -2.772814035415649414e-01 -2.772814035415649414e-01 -3.045988082885742188e-01 -3.045988082885742188e-01 -2.774579524993896484e-01 -2.774579524993896484e-01 -3.082541227340698242e-01 -3.082541227340698242e-01 -3.325548171997070312e-01 -3.325548171997070312e-01 -3.009710311889648438e-01 -3.009710311889648438e-01 -2.741661667823791504e-01 -2.741661667823791504e-01 -2.755573987960815430e-01 -2.755573987960815430e-01 -2.492283731698989868e-01 -2.492283731698989868e-01 -2.435527890920639038e-01 -2.435527890920639038e-01 -1.761042177677154541e-01 -1.761042177677154541e-01 -1.528772413730621338e-01 -1.528772413730621338e-01 -1.664294451475143433e-01 -1.664294451475143433e-01 7.346630096435546875e-02 7.346630096435546875e-02 -2.058368772268295288e-01 -2.058368772268295288e-01 -2.572209239006042480e-01 -2.572209239006042480e-01 -2.560366988182067871e-01 -2.560366988182067871e-01 -2.256789356470108032e-01 -2.256789356470108032e-01 -2.429670095443725586e-01 -2.429670095443725586e-01 -2.511567473411560059e-01 -2.511567473411560059e-01 -2.113049924373626709e-01 -2.113049924373626709e-01 -1.755407750606536865e-01 -1.755407750606536865e-01 -1.282219588756561279e-01 -1.282219588756561279e-01 -1.983857750892639160e-01 -1.983857750892639160e-01 -2.379106730222702026e-01 -2.379106730222702026e-01 -2.656497359275817871e-01 -2.656497359275817871e-01 -3.355480432510375977e-01 -3.355480432510375977e-01 -3.213428556919097900e-01 -3.213428556919097900e-01 -3.299815654754638672e-01 -3.299815654754638672e-01 -3.183061778545379639e-01 -3.183061778545379639e-01 -2.943449616432189941e-01 -2.943449616432189941e-01 -2.652040123939514160e-01 -2.652040123939514160e-01 -2.265990823507308960e-01 -2.265990823507308960e-01 -1.677739620208740234e-01 -1.677739620208740234e-01 -9.541824460029602051e-02 -9.541824460029602051e-02 -1.228110194206237793e-01 -1.228110194206237793e-01 -1.147295534610748291e-01 -1.147295534610748291e-01 -1.463976800441741943e-01 -1.463976800441741943e-01 -2.086331844329833984e-01 -2.086331844329833984e-01 -2.186088860034942627e-01 -2.186088860034942627e-01 -2.399125546216964722e-01 -2.399125546216964722e-01 -2.069628238677978516e-01 -2.069628238677978516e-01 -1.802329570055007935e-01 -1.802329570055007935e-01 -2.352043390274047852e-01 -2.352043390274047852e-01 -2.574056982994079590e-01 -2.574056982994079590e-01 -2.023558914661407471e-01 -2.023558914661407471e-01 -1.924026608467102051e-01 -1.924026608467102051e-01 -2.359149008989334106e-01 -2.359149008989334106e-01 -2.575584053993225098e-01 -2.575584053993225098e-01 -2.884450554847717285e-01 -2.884450554847717285e-01 -2.693673968315124512e-01 -2.693673968315124512e-01 -2.881538271903991699e-01 -2.881538271903991699e-01 -3.244706392288208008e-01 -3.244706392288208008e-01 -3.255708217620849609e-01 -3.255708217620849609e-01 -2.977748513221740723e-01 -2.977748513221740723e-01 -2.549157142639160156e-01 -2.549157142639160156e-01 -2.398348301649093628e-01 -2.398348301649093628e-01 -1.922649890184402466e-01 -1.922649890184402466e-01 -1.463112235069274902e-01 -1.463112235069274902e-01 -1.201968193054199219e-01 -1.201968193054199219e-01 -1.115390658378601074e-01 -1.115390658378601074e-01 -2.000216096639633179e-01 -2.000216096639633179e-01 -2.120916843414306641e-01 -2.120916843414306641e-01 -2.117369174957275391e-01 -2.117369174957275391e-01 -2.396706938743591309e-01 -2.396706938743591309e-01 -2.473469972610473633e-01 -2.473469972610473633e-01 -2.320256978273391724e-01 -2.320256978273391724e-01 -2.229721248149871826e-01 -2.229721248149871826e-01 -2.375690191984176636e-01 -2.375690191984176636e-01 -2.071699798107147217e-01 -2.071699798107147217e-01 -1.741921454668045044e-01 -1.741921454668045044e-01 -2.248560935258865356e-01 -2.248560935258865356e-01 -2.159476876258850098e-01 -2.159476876258850098e-01
2.290096879005432129e-01 2.290096879005432129e-01 2.393294125795364380e-01 2.393294125795364380e-01 2.464852631092071533e-01 2.464852631092071533e-01 2.619640231132507324e-01 2.619640231132507324e-01 2.536914050579071045e-01 2.536914050579071045e-01 2.582052946090698242e-01 2.582052946090698242e-01 2.457499057054519653e-01 2.457499057054519653e-01 2.419600486755371094e-01 2.419600486755371094e-01 2.316871881484985352e-01 2.316871881484985352e-01 2.122205793857574463e-01 2.122205793857574463e-01 1.954083740711212158e-01 1.954083740711212158e-01 2.103079557418823242e-01 2.103079557418823242e-01 2.031669169664382935e-01 2.031669169664382935e-01 2.071692496538162231e-01 2.071692496538162231e-01 1.870846450328826904e-01 1.870846450328826904e-01 2.002132087945938110e-01 2.002132087945938110e-01 1.901341378688812256e-01 1.901341378688812256e-01 1.806633770465850830e-01 1.806633770465850830e-01 1.533919870853424072e-01 1.533919870853424072e-01 1.529083847999572754e-01 1.529083847999572754e-01 1.525231897830963135e-01 1.525231897830963135e-01 1.630317717790603638e-01 1.630317717790603638e-01 1.611845493316650391e-01 1.611845493316650391e-01 1.832698583602905273e-01 1.832698583602905273e-01 1.979141533374786377e-01 1.979141533374786377e-01 2.303086966276168823e-01 2.303086966276168823e-01 2.372538894414901733e-01 2.372538894414901733e-01 2.488524615764617920e-01 2.488524615764617920e-01 2.589648962020874023e-01 2.589648962020874023e-01 2.581967711448669434e-01 2.581967711448669434e-01 2.561193108558654785e-01 2.561193108558654785e-01 2.453335374593734741e-01 2.453335374593734741e-01 2.486967593431472778e-01 2.486967593431472778e-01 2.260904312133789062e-01 2.260904312133789062e-01 2.336662709712982178e-01 2.336662709712982178e-01 2.167250663042068481e-01 2.167250663042068481e-01 2.123117744922637939e-01 2.123117744922637939e-01 1.911421120166778564e-01 1.911421120166778564e-01 1.771516352891921997e-01 1.771516352891921997e-01 1.621323376893997192e-01 1.621323376893997192e-01 1.195167601108551025e-01 1.195167601108551025e-01 1.495550274848937988e-01 1.495550274848937988e-01 1.531220376491546631e-01 1.531220376491546631e-01 1.736489832401275635e-01 1.736489832401275635e-01 1.848735958337783813e-01 1.848735958337783813e-01 1.961100399494171143e-01 1.961100399494171143e-01 1.996157318353652954e-01 1.996157318353652954e-01 2.407299578189849854e-01 2.407299578189849854e-01 2.279786020517349243e-01 2.279786020517349243e-01 2.288156598806381226e-01 2.288156598806381226e-01 2.216560989618301392e-01 2.216560989618301392e-01 2.218877375125885010e-01 2.218877375125885010e-01 1.970076411962509155e-01 1.970076411962509155e-01 2.252398282289505005e-01 2.252398282289505005e-01 2.348867803812026978e-01 2.348867803812026978e-01 2.430226206779479980e-01 2.430226206779479980e-01 2.216979414224624634e-01 2.216979414224624634e-01 2.163807749748229980e-01 2.163807749748229980e-01 2.072440236806869507e-01 2.072440236806869507e-01 2.114709764719009399e-01 2.114709764719009399e-01 2.448132336139678955e-01 2.448132336139678955e-01 1.972343921661376953e-01 1.972343921661376953e-01 2.133205384016036987e-01 2.133205384016036987e-01 1.741247326135635376e-01 1.741247326135635376e-01 1.593904048204421997e-01 1.593904048204421997e-01 1.416447162628173828e-01 1.416447162628173828e-01 1.615818589925765991e-01 1.615818589925765991e-01 1.505509614944458008e-01 1.505509614944458008e-01 1.544294953346252441e-01 1.544294953346252441e-01 1.803393512964248657e-01 1.803393512964248657e-01 1.730266362428665161e-01 1.730266362428665161e-01 1.841770559549331665e-01 1.841770559549331665e-01 1.913846582174301147e-01 1.913846582174301147e-01 2.062047123908996582e-01 2.062047123908996582e-01 2.073777168989181519e-01 2.073777168989181519e-01 1.923983991146087646e-01 1.923983991146087646e-01 1.992907524108886719e-01 1.992907524108886719e-01 2.148899585008621216e-01 2.148899585008621216e-01 2.403404116630554199e-01 2.403404116630554199e-01 2.370763868093490601e-01 2.370763868093490601e-01 2.448762655258178711e-01 2.448762655258178711e-01 2.244719713926315308e-01 2.244719713926315308e-01 2.177134752273559570e-01 2.177134752273559570e-01 1.971294581890106201e-01 1.971294581890106201e-01 2.350496947765350342e-01 2.350496947765350342e-01 2.059774249792098999e-01 2.059774249792098999e-01 1.771111041307449341e-01 1.771111041307449341e-01 1.720287352800369263e-01 1.720287352800369263e-01 1.685692667961120605e-01 1.685692667961120605e-01 1.281474232673645020e-01 1.281474232673645020e-01 1.362209618091583252e-01 1.362209618091583252e-01 1.355323791503906250e-01 1.355323791503906250e-01 1.419973969459533691e-01 1.419973969459533691e-01 1.490586698055267334e-01 1.490586698055267334e-01 1.572069823741912842e-01 1.572069823741912842e-01 1.529865562915802002e-01 1.529865562915802002e-01 1.662432402372360229e-01 1.662432402372360229e-01 1.926062703132629395e-01 1.926062703132629395e-01 1.938773095607757568e-01 1.938773095607757568e-01 1.734828352928161621e-01 1.734828352928161621e-01 1.914381831884384155e-01 1.914381831884384155e-01 2.065851688385009766e-01 2.065851688385009766e-01 2.335009276866912842e-01 2.335009276866912842e-01 2.366938740015029907e-01 2.366938740015029907e-01 2.224053740501403809e-01 2.224053740501403809e-01 2.212383151054382324e-01 2.212383151054382324e-01 2.170482426881790161e-01 2.170482426881790161e-01 2.208169102668762207e-01 2.208169102668762207e-01 2.423844188451766968e-01 2.423844188451766968e-01 2.120199650526046753e-01 2.120199650526046753e-01 2.133052498102188110e-01 2.133052498102188110e-01 1.440209150314331055e-01 1.440209150314331055e-01 1.272895038127899170e-01 1.272895038127899170e-01 5.680534243583679199e-02 5.680534243583679199e-02 7.845702767372131348e-02 7.845702767372131348e-02 6.745940446853637695e-02 6.745940446853637695e-02 4.813724756240844727e-02 4.813724756240844727e-02 2.924451231956481934e-02 2.924451231956481934e-02 2.454796433448791504e-02 2.454796433448791504e-02 4.139259457588195801e-02 4.139259457588195801e-02 3.984358906745910645e-02 3.984358906745910645e-02 5.053681135177612305e-02 5.053681135177612305e-02 1.387565135955810547e-01 1.387565135955810547e-01 1.319188177585601807e-01 1.319188177585601807e-01 1.402985453605651855e-01 1.402985453605651855e-01 1.483296453952789307e-01 1.483296453952789307e-01 1.693516373634338379e-01 1.693516373634338379e-01 1.983054876327514648e-01 1.983054876327514648e-01 2.228352278470993042e-01 2.228352278470993042e-01 2.294220626354217529e-01 2.294220626354217529e-01 2.366943210363388062e-01 2.366943210363388062e-01 2.231720685958862305e-01 2.231720685958862305e-01 2.068754583597183228e-01 2.068754583597183228e-01 1.891255229711532593e-01 1.891255229711532593e-01 1.887926608324050903e-01 1.887926608324050903e-01 1.834204047918319702e-01 1.834204047918319702e-01 1.694477200508117676e-01 1.694477200508117676e-01 1.648549139499664307e-01 1.648549139499664307e-01 1.728859990835189819e-01 1.728859990835189819e-01 1.629397869110107422e-01 1.629397869110107422e-01 1.543342173099517822e-01 1.543342173099517822e-01 1.956014186143875122e-01 1.956014186143875122e-01 2.005157768726348877e-01 2.005157768726348877e-01 2.149246633052825928e-01 2.149246633052825928e-01 2.275674641132354736e-01 2.275674641132354736e-01 2.530124187469482422e-01 2.530124187469482422e-01 2.560498118400573730e-01 2.560498118400573730e-01 2.671138048171997070e-01 2.671138048171997070e-01 2.664176821708679199e-01 2.664176821708679199e-01 2.680523395538330078e-01 2.680523395538330078e-01 2.593267261981964111e-01 2.593267261981964111e-01 2.800090610980987549e-01 2.800090610980987549e-01 2.713263630867004395e-01 2.713263630867004395e-01 2.479384541511535645e-01 2.479384541511535645e-01 2.429155856370925903e-01 2.429155856370925903e-01 2.430799752473831177e-01 2.430799752473831177e-01 2.256577610969543457e-01 2.256577610969543457e-01 2.314849644899368286e-01 2.314849644899368286e-01 2.149700373411178589e-01 2.149700373411178589e-01 2.229134142398834229e-01 2.229134142398834229e-01 2.021529227495193481e-01 2.021529227495193481e-01 1.916500329971313477e-01 1.916500329971313477e-01 1.859949231147766113e-01 1.859949231147766113e-01 1.610572338104248047e-01 1.610572338104248047e-01 1.760670393705368042e-01 1.760670393705368042e-01 1.757885962724685669e-01 1.757885962724685669e-01 1.680249571800231934e-01 1.680249571800231934e-01 1.411451399326324463e-01 1.411451399326324463e-01 2.072062045335769653e-01 2.072062045335769653e-01 2.209986150264739990e-01 2.209986150264739990e-01 2.481659501791000366e-01 2.481659501791000366e-01 2.646375894546508789e-01 2.646375894546508789e-01 2.863399386405944824e-01 2.863399386405944824e-01 2.898342013359069824e-01 2.898342013359069824e-01 2.778776288032531738e-01 2.778776288032531738e-01 2.758164405822753906e-01 2.758164405822753906e-01 2.499223351478576660e-01 2.499223351478576660e-01 2.417527586221694946e-01 2.417527586221694946e-01 2.230090498924255371e-01 2.230090498924255371e-01 2.275186777114868164e-01 2.275186777114868164e-01 2.252530455589294434e-01 2.252530455589294434e-01 2.209014743566513062e-01 2.209014743566513062e-01 2.105373293161392212e-01 2.105373293161392212e-01 2.043204307556152344e-01 2.043204307556152344e-01 2.022550553083419800e-01 2.022550553083419800e-01 1.842025369405746460e-01 1.842025369405746460e-01 1.708492785692214966e-01 1.708492785692214966e-01 1.796278655529022217e-01 1.796278655529022217e-01 1.855921894311904907e-01 1.855921894311904907e-01 1.882568299770355225e-01 1.882568299770355225e-01 1.840643137693405151e-01 1.840643137693405151e-01 1.900499910116195679e-01 1.900499910116195679e-01 2.069779932498931885e-01 2.069779932498931885e-01 2.267784327268600464e-01 2.267784327268600464e-01 2.546051740646362305e-01 2.546051740646362305e-01 2.642490267753601074e-01 2.642490267753601074e-01 2.807383835315704346e-01 2.807383835315704346e-01 2.687905132770538330e-01 2.687905132770538330e-01 2.767170369625091553e-01 2.767170369625091553e-01 2.841911911964416504e-01 2.841911911964416504e-01 2.819828391075134277e-01 2.819828391075134277e-01 2.652443647384643555e-01 2.652443647384643555e-01 2.603126168251037598e-01 2.603126168251037598e-01 2.442332357168197632e-01 2.442332357168197632e-01 2.315521389245986938e-01 2.315521389245986938e-01 2.294710576534271240e-01 2.294710576534271240e-01 2.213934808969497681e-01 2.213934808969497681e-01 2.082193046808242798e-01 2.082193046808242798e-01 1.988426893949508667e-01 1.988426893949508667e-01 2.035379856824874878e-01 2.035379856824874878e-01 2.089943289756774902e-01 2.089943289756774902e-01 1.831201910972595215e-01 1.831201910972595215e-01 1.855718791484832764e-01 1.855718791484832764e-01 1.971089988946914673e-01 1.971089988946914673e-01 2.131297737360000610e-01 2.131297737360000610e-01 2.232326418161392212e-01 2.232326418161392212e-01 2.422682046890258789e-01 2.422682046890258789e-01 2.474405765533447266e-01 2.474405765533447266e-01 2.631278932094573975e-01 2.631278932094573975e-01 2.741740345954895020e-01 2.741740345954895020e-01 2.878558635711669922e-01 2.878558635711669922e-01 2.698929309844970703e-01 2.698929309844970703e-01 2.794515490531921387e-01 2.794515490531921387e-01 2.743799090385437012e-01 2.743799090385437012e-01 2.703378796577453613e-01 2.703378796577453613e-01 2.599922716617584229e-01 2.599922716617584229e-01 2.480246573686599731e-01 2.480246573686599731e-01 2.111245542764663696e-01 2.111245542764663696e-01 2.066099494695663452e-01 2.066099494695663452e-01 1.960826218128204346e-01 1.960826218128204346e-01 2.317674160003662109e-01 2.317674160003662109e-01 2.101121097803115845e-01 2.101121097803115845e-01 2.225972712039947510e-01 2.225972712039947510e-01 1.946807205677032471e-01 1.946807205677032471e-01 2.029528468847274780e-01 2.029528468847274780e-01 2.016465514898300171e-01 2.016465514898300171e-01 2.033310085535049438e-01 2.033310085535049438e-01 2.001050412654876709e-01 2.001050412654876709e-01 1.987229138612747192e-01 1.987229138612747192e-01 2.047569751739501953e-01 2.047569751739501953e-01 2.236040532588958740e-01 2.236040532588958740e-01 2.332251071929931641e-01 2.332251071929931641e-01 2.649186253547668457e-01 2.649186253547668457e-01 2.780420184135437012e-01 2.780420184135437012e-01 2.822383642196655273e-01 2.822383642196655273e-01 2.751393020153045654e-01 2.751393020153045654e-01 2.760050892829895020e-01 2.760050892829895020e-01 2.698280513286590576e-01 2.698280513286590576e-01 2.763520479202270508e-01 2.763520479202270508e-01 2.666183114051818848e-01 2.666183114051818848e-01 2.513160705566406250e-01 2.513160705566406250e-01 2.459444552659988403e-01 2.459444552659988403e-01 2.389112710952758789e-01 2.389112710952758789e-01 2.116992026567459106e-01 2.116992026567459106e-01 2.335287481546401978e-01 2.335287481546401978e-01 2.061511725187301636e-01 2.061511725187301636e-01 1.944060772657394409e-01 1.944060772657394409e-01 1.987050324678421021e-01 1.987050324678421021e-01 1.882125586271286011e-01 1.882125586271286011e-01
-5.309243500232696533e-02 -5.309243500232696533e-02 -6.713211536407470703e-02 -6.713211536407470703e-02 -5.393996834754943848e-02 -5.393996834754943848e-02 -5.242849886417388916e-02 -5.242849886417388916e-02 -3.128926455974578857e-02 -3.128926455974578857e-02 -1.689831912517547607e-02 -1.689831912517547607e-02 2.859173715114593506e-02 2.859173715114593506e-02 6.618598103523254395e-02 6.618598103523254395e-02 8.101844787597656250e-02 8.101844787597656250e-02 1.236387938261032104e-01 1.236387938261032104e-01 1.702955514192581177e-01 1.702955514192581177e-01 1.570206433534622192e-01 1.570206433534622192e-01 1.718768626451492310e-01 1.718768626451492310e-01 1.724227219820022583e-01 1.724227219820022583e-01 1.922137886285781860e-01 1.922137886285781860e-01 1.671564728021621704e-01 1.671564728021621704e-01 1.473707109689712524e-01 1.473707109689712524e-01 1.606708914041519165e-01 1.606708914041519165e-01 1.515598148107528687e-01 1.515598148107528687e-01 1.350048333406448364e-01 1.350048333406448364e-01 1.102444678544998169e-01 1.102444678544998169e-01 8.595943450927734375e-02 8.595943450927734375e-02 3.318262100219726562e-02 3.318262100219726562e-02 -1.782405376434326172e-02 -1.782405376434326172e-02 -2.646563947200775146e-02 -2.646563947200775146e-02 -4.502520710229873657e-02 -4.502520710229873657e-02 -4.949836432933807373e-02 -4.949836432933807373e-02 -4.742313176393508911e-02 -4.742313176393508911e-02 -2.351281046867370605e-02 -2.351281046867370605e-02 2.275064587593078613e-03 2.275064587593078613e-03 3.004559874534606934e-02 3.004559874534606934e-02 5.751207470893859863e-02 5.751207470893859863e-02 8.504912257194519043e-02 8.504912257194519043e-02 1.401190012693405151e-01 1.401190012693405151e-01 1.647803634405136108e-01 1.647803634405136108e-01 1.664779335260391235e-01 1.664779335260391235e-01 1.911625415086746216e-01 1.911625415086746216e-01 1.967566758394241333e-01 1.967566758394241333e-01 2.050244063138961792e-01 2.050244063138961792e-01 2.120645791292190552e-01 2.120645791292190552e-01 2.114645689725875854e-01 2.114645689725875854e-01 1.722740978002548218e-01 1.722740978002548218e-01 1.444762498140335083e-01 1.444762498140335083e-01 8.895826339721679688e-02 8.895826339721679688e-02 5.339364707469940186e-02 5.339364707469940186e-02 1.423770189285278320e-02 1.423770189285278320e-02 -8.170783519744873047e-03 -8.170783519744873047e-03 -3.970865905284881592e-02 -3.970865905284881592e-02 -5.397177487611770630e-02 -5.397177487611770630e-02 -5.601456761360168457e-02 -5.601456761360168457e-02 -4.519302397966384888e-02 -4.519302397966384888e-02 -4.541733115911483765e-02 -4.541733115911483765e-02 -3.199245035648345947e-02 -3.199245035648345947e-02 -2.402077615261077881e-02 -2.402077615261077881e-02 -8.276298642158508301e-03 -8.276298642158508301e-03 7.679522037506103516e-03 7.679522037506103516e-03 4.703891277313232422e-02 4.703891277313232422e-02 6.310021877288818359e-02 6.310021877288818359e-02 8.242526650428771973e-02 8.242526650428771973e-02 1.078011244535446167e-01 1.078011244535446167e-01 5.615350604057312012e-02 5.615350604057312012e-02 1.049383431673049927e-01 1.049383431673049927e-01 1.008494347333908081e-01 1.008494347333908081e-01 1.281805187463760376e-01 1.281805187463760376e-01 1.355331093072891235e-01 1.355331093072891235e-01 1.618364006280899048e-01 1.618364006280899048e-01 1.611632853746414185e-01 1.611632853746414185e-01 1.456076055765151978e-01 1.456076055765151978e-01 1.202013045549392700e-01 1.202013045549392700e-01 7.178351283073425293e-02 7.178351283073425293e-02 3.287254273891448975e-02 3.287254273891448975e-02 -8.578270673751831055e-03 -8.578270673751831055e-03 -4.750683903694152832e-02 -4.750683903694152832e-02 -6.184304505586624146e-02 -6.184304505586624146e-02 -6.765720993280410767e-02 -6.765720993280410767e-02 -5.831468105316162109e-02 -5.831468105316162109e-02 -4.932914674282073975e-02 -4.932914674282073975e-02 -2.809542417526245117e-02 -2.809542417526245117e-02 -1.526448130607604980e-02 -1.526448130607604980e-02 1.722854375839233398e-02 1.722854375839233398e-02 4.553544521331787109e-02 4.553544521331787109e-02 7.816736400127410889e-02 7.816736400127410889e-02 1.172861605882644653e-01 1.172861605882644653e-01 1.248006671667098999e-01 1.248006671667098999e-01 9.131829440593719482e-02 9.131829440593719482e-02 1.158427447080612183e-01 1.158427447080612183e-01 1.681307107210159302e-01 1.681307107210159302e-01 1.468306034803390503e-01 1.468306034803390503e-01 1.442243009805679321e-01 1.442243009805679321e-01 1.770773977041244507e-01 1.770773977041244507e-01 1.661023646593093872e-01 1.661023646593093872e-01 1.326368898153305054e-01 1.326368898153305054e-01 1.086093336343765259e-01 1.086093336343765259e-01 7.510481774806976318e-02 7.510481774806976318e-02 3.104591369628906250e-02 3.104591369628906250e-02 -9.764537215232849121e-03 -9.764537215232849121e-03 -2.267885208129882812e-02 -2.267885208129882812e-02 -5.286235362291336060e-02 -5.286235362291336060e-02 -6.168062984943389893e-02 -6.168062984943389893e-02 -5.095007270574569702e-02 -5.095007270574569702e-02 -3.864790499210357666e-02 -3.864790499210357666e-02 -2.251733839511871338e-02 -2.251733839511871338e-02 -1.151037216186523438e-02 -1.151037216186523438e-02 3.847268223762512207e-02 3.847268223762512207e-02 7.528091967105865479e-02 7.528091967105865479e-02 1.167361885309219360e-01 1.167361885309219360e-01 1.581443399190902710e-01 1.581443399190902710e-01 1.750369518995285034e-01 1.750369518995285034e-01 1.411902755498886108e-01 1.411902755498886108e-01 1.511786133050918579e-01 1.511786133050918579e-01 1.264134794473648071e-01 1.264134794473648071e-01 1.859080940485000610e-01 1.859080940485000610e-01 2.136682420969009399e-01 2.136682420969009399e-01 2.354821711778640747e-01 2.354821711778640747e-01 1.968121379613876343e-01 1.968121379613876343e-01 1.424035578966140747e-01 1.424035578966140747e-01 1.442055255174636841e-01 1.442055255174636841e-01 1.320964246988296509e-01 1.320964246988296509e-01 1.037147790193557739e-01 1.037147790193557739e-01 6.822326779365539551e-02 6.822326779365539551e-02 1.279792189598083496e-02 1.279792189598083496e-02 -3.884802758693695068e-02 -3.884802758693695068e-02 -6.680542975664138794e-02 -6.680542975664138794e-02 -6.079617887735366821e-02 -6.079617887735366821e-02 -6.000956147909164429e-02 -6.000956147909164429e-02 -3.920830786228179932e-02 -3.920830786228179932e-02 -2.019591629505157471e-02 -2.019591629505157471e-02 2.639624476432800293e-02 2.639624476432800293e-02 7.866241037845611572e-02 7.866241037845611572e-02 1.367550939321517944e-01 1.367550939321517944e-01 1.893654018640518188e-01 1.893654018640518188e-01 2.639563679695129395e-01 2.639563679695129395e-01 3.155701756477355957e-01 3.155701756477355957e-01 3.679373860359191895e-01 3.679373860359191895e-01 4.065351486206054688e-01 4.065351486206054688e-01 4.185686111450195312e-01 4.185686111450195312e-01 4.343805313110351562e-01 4.343805313110351562e-01 4.572038650512695312e-01 4.572038650512695312e-01 3.542557358741760254e-01 3.542557358741760254e-01 2.725414633750915527e-01 2.725414633750915527e-01 1.854525357484817505e-01 1.854525357484817505e-01 7.667326927185058594e-02 7.667326927185058594e-02 7.304027676582336426e-03 7.304027676582336426e-03 -6.658121943473815918e-03 -6.658121943473815918e-03 -9.517982602119445801e-03 -9.517982602119445801e-03 -2.213449776172637939e-02 -2.213449776172637939e-02 -2.718876302242279053e-02 -2.718876302242279053e-02 -1.073597371578216553e-02 -1.073597371578216553e-02 3.049105405807495117e-03 3.049105405807495117e-03 5.815014243125915527e-03 5.815014243125915527e-03 7.994771003723144531e-03 7.994771003723144531e-03 1.626199483871459961e-02 1.626199483871459961e-02 2.263489365577697754e-02 2.263489365577697754e-02 3.730706870555877686e-02 3.730706870555877686e-02 6.777790188789367676e-02 6.777790188789367676e-02 7.676407694816589355e-02 7.676407694816589355e-02 1.084634810686111450e-01 1.084634810686111450e-01 1.531624346971511841e-01 1.531624346971511841e-01 1.600495427846908569e-01 1.600495427846908569e-01 1.483054310083389282e-01 1.483054310083389282e-01 1.525790244340896606e-01 1.525790244340896606e-01 1.384652405977249146e-01 1.384652405977249146e-01 1.181709021329879761e-01 1.181709021329879761e-01 8.776570856571197510e-02 8.776570856571197510e-02 8.873447775840759277e-02 8.873447775840759277e-02 6.689925491809844971e-02 6.689925491809844971e-02 5.023600161075592041e-02 5.023600161075592041e-02 1.991035044193267822e-02 1.991035044193267822e-02 -8.544281125068664551e-03 -8.544281125068664551e-03 -3.244479745626449585e-02 -3.244479745626449585e-02 -4.613579809665679932e-02 -4.613579809665679932e-02 -5.662760883569717407e-02 -5.662760883569717407e-02 -6.141713261604309082e-02 -6.141713261604309082e-02 -6.443751603364944458e-02 -6.443751603364944458e-02 -5.580642819404602051e-02 -5.580642819404602051e-02 -4.167103022336959839e-02 -4.167103022336959839e-02 -1.504121720790863037e-02 -1.504121720790863037e-02 1.363433897495269775e-02 1.363433897495269775e-02 4.174621403217315674e-02 4.174621403217315674e-02 4.911145567893981934e-02 4.911145567893981934e-02 5.973310768604278564e-02 5.973310768604278564e-02 8.787022531032562256e-02 8.787022531032562256e-02 1.010364443063735962e-01 1.010364443063735962e-01 1.358805447816848755e-01 1.358805447816848755e-01 1.426540762186050415e-01 1.426540762186050415e-01 1.571134775876998901e-01 1.571134775876998901e-01 1.455111652612686157e-01 1.455111652612686157e-01 1.516496390104293823e-01 1.516496390104293823e-01 1.958005577325820923e-01 1.958005577325820923e-01 1.666205078363418579e-01 1.666205078363418579e-01 1.570752412080764771e-01 1.570752412080764771e-01 1.167730242013931274e-01 1.167730242013931274e-01 1.070057898759841919e-01 1.070057898759841919e-01 4.143325984477996826e-02 4.143325984477996826e-02 -4.140555858612060547e-03 -4.140555858612060547e-03 -1.898778975009918213e-02 -1.898778975009918213e-02 -6.147142499685287476e-02 -6.147142499685287476e-02 -6.132686138153076172e-02 -6.132686138153076172e-02 -6.027294695377349854e-02 -6.027294695377349854e-02 -5.790442228317260742e-02 -5.790442228317260742e-02 -2.930517494678497314e-02 -2.930517494678497314e-02 1.387688517570495605e-02 1.387688517570495605e-02 3.502893447875976562e-02 3.502893447875976562e-02 7.378514111042022705e-02 7.378514111042022705e-02 1.165356487035751343e-01 1.165356487035751343e-01 1.267438381910324097e-01 1.267438381910324097e-01 1.490378826856613159e-01 1.490378826856613159e-01 1.750797480344772339e-01 1.750797480344772339e-01 1.791576296091079712e-01 1.791576296091079712e-01 1.724653691053390503e-01 1.724653691053390503e-01 1.971109658479690552e-01 1.971109658479690552e-01 1.976901441812515259e-01 1.976901441812515259e-01 1.531898230314254761e-01 1.531898230314254761e-01 1.117182523012161255e-01 1.117182523012161255e-01 6.983907520771026611e-02 6.983907520771026611e-02 3.629331290721893311e-02 3.629331290721893311e-02 1.223385334014892578e-05 1.223385334014892578e-05 -2.816978096961975098e-02 -2.816978096961975098e-02 -4.170437902212142944e-02 -4.170437902212142944e-02 -6.177427619695663452e-02 -6.177427619695663452e-02 -5.614623427391052246e-02 -5.614623427391052246e-02 -5.185285210609436035e-02 -5.185285210609436035e-02 -4.487914592027664185e-02 -4.487914592027664185e-02 -3.239914774894714355e-02 -3.239914774894714355e-02 -3.555560111999511719e-02 -3.555560111999511719e-02 -4.245266318321228027e-03 -4.245266318321228027e-03 2.269639074802398682e-02 2.269639074802398682e-02 5.896994471549987793e-02 5.896994471549987793e-02 6.517323851585388184e-02 6.517323851585388184e-02 8.660331368446350098e-02 8.660331368446350098e-02 7.157424092292785645e-02 7.157424092292785645e-02 9.772856533527374268e-02 9.772856533527374268e-02 1.249698251485824585e-01 1.249698251485824585e-01 1.486901789903640747e-01 1.486901789903640747e-01 1.585470288991928101e-01 1.585470288991928101e-01 1.581804305315017700e-01 1.581804305315017700e-01 1.554539650678634644e-01 1.554539650678634644e-01 1.224713772535324097e-01 1.224713772535324097e-01 1.011812239885330200e-01 1.011812239885330200e-01 7.568843662738800049e-02 7.568843662738800049e-02 2.514924108982086182e-02 2.514924108982086182e-02 -4.845619201660156250e-03 -4.845619201660156250e-03 -4.995529353618621826e-02 -4.995529353618621826e-02 -6.510499119758605957e-02 -6.510499119758605957e-02 -6.407303363084793091e-02 -6.407303363084793091e-02 -6.532862037420272827e-02 -6.532862037420272827e-02 -5.352313071489334106e-02 -5.352313071489334106e-02 -4.244547337293624878e-02 -4.244547337293624878e-02 -3.235140442848205566e-02 -3.235140442848205566e-02 -6.691053509712219238e-03 -6.691053509712219238e-03 1.328842341899871826e-02 1.328842341899871826e-02 3.028351068496704102e-02 3.028351068496704102e-02 5.972987413406372070e-02 5.972987413406372070e-02 8.696155250072479248e-02 8.696155250072479248e-02 7.477632164955139160e-02 7.477632164955139160e-02 1.049158126115798950e-01 1.049158126115798950e-01 1.118925660848617554e-01 1.118925660848617554e-01 1.311301440000534058e-01 1.311301440000534058e-01 1.631713062524795532e-01 1.631713062524795532e-01
2.922177314758300781e-03 2.922177314758300781e-03 8.447766304016113281e-03 8.447766304016113281e-03 1.933890581130981445e-02 1.933890581130981445e-02 4.705724120140075684e-02 4.705724120140075684e-02 5.778172612190246582e-02 5.778172612190246582e-02 9.115022420883178711e-02 9.115022420883178711e-02 1.196668148040771484e-01 1.196668148040771484e-01 1.465637385845184326e-01 1.465637385845184326e-01 1.664283573627471924e-01 1.664283573627471924e-01 1.937132775783538818e-01 1.937132775783538818e-01 2.136152386665344238e-01 2.136152386665344238e-01 1.894840896129608154e-01 1.894840896129608154e-01 1.954163312911987305e-01 1.954163312911987305e-01 2.098187208175659180e-01 2.098187208175659180e-01 1.978472173213958740e-01 1.978472173213958740e-01 1.900306642055511475e-01 1.900306642055511475e-01 1.677818596363067627e-01 1.677818596363067627e-01 1.952697336673736572e-01 1.952697336673736572e-01 2.291053533554077148e-01 2.291053533554077148e-01 2.311741411685943604e-01 2.311741411685943604e-01 1.905275583267211914e-01 1.905275583267211914e-01 1.530813574790954590e-01 1.530813574790954590e-01 8.913797140121459961e-02 8.913797140121459961e-02 3.638607263565063477e-02 3.638607263565063477e-02 7.288977503776550293e-03 7.288977503776550293e-03 2.957493066787719727e-02 2.957493066787719727e-02 3.237175941467285156e-02 3.237175941467285156e-02 3.904700279235839844e-02 3.904700279235839844e-02 4.240828752517700195e-02 4.240828752517700195e-02 8.194187283515930176e-02 8.194187283515930176e-02 1.437307596206665039e-01 1.437307596206665039e-01 1.569094359874725342e-01 1.569094359874725342e-01 1.206376552581787109e-01 1.206376552581787109e-01 1.256480216979980469e-01 1.256480216979980469e-01 1.427438259124755859e-01 1.427438259124755859e-01 1.442891955375671387e-01 1.442891955375671387e-01 1.627082228660583496e-01 1.627082228660583496e-01 1.746286153793334961e-01 1.746286153793334961e-01 1.562933027744293213e-01 1.562933027744293213e-01 1.399509310722351074e-01 1.399509310722351074e-01 1.511918902397155762e-01 1.511918902397155762e-01 1.453262269496917725e-01 1.453262269496917725e-01 1.855708062648773193e-01 1.855708062648773193e-01 1.881376206874847412e-01 1.881376206874847412e-01 2.154780924320220947e-01 2.154780924320220947e-01 1.591911911964416504e-01 1.591911911964416504e-01 1.052662432193756104e-01 1.052662432193756104e-01 2.634841203689575195e-02 2.634841203689575195e-02 3.128775954246520996e-02 3.128775954246520996e-02 2.659150958061218262e-02 2.659150958061218262e-02 6.380826234817504883e-04 6.380826234817504883e-04 -1.608654856681823730e-03 -1.608654856681823730e-03 1.207605004310607910e-02 1.207605004310607910e-02 1.349145174026489258e-02 1.349145174026489258e-02 3.330215811729431152e-02 3.330215811729431152e-02 8.054929971694946289e-02 8.054929971694946289e-02 1.268774569034576416e-01 1.268774569034576416e-01 1.344580948352813721e-01 1.344580948352813721e-01 1.696448922157287598e-01 1.696448922157287598e-01 1.952821612358093262e-01 1.952821612358093262e-01 1.629582643508911133e-01 1.629582643508911133e-01 2.086392641067504883e-01 2.086392641067504883e-01 1.686407625675201416e-01 1.686407625675201416e-01 1.693176925182342529e-01 1.693176925182342529e-01 1.708291769027709961e-01 1.708291769027709961e-01 2.060421407222747803e-01 2.060421407222747803e-01 2.114730477333068848e-01 2.114730477333068848e-01 2.286110520362854004e-01 2.286110520362854004e-01 2.441526651382446289e-01 2.441526651382446289e-01 1.630917489528656006e-01 1.630917489528656006e-01 1.210949122905731201e-01 1.210949122905731201e-01 7.800033688545227051e-02 7.800033688545227051e-02 1.973834633827209473e-02 1.973834633827209473e-02 -1.880154013633728027e-03 -1.880154013633728027e-03 -9.747967123985290527e-03 -9.747967123985290527e-03 1.099613308906555176e-02 1.099613308906555176e-02 1.184982061386108398e-02 1.184982061386108398e-02 3.190732002258300781e-02 3.190732002258300781e-02 6.548228859901428223e-02 6.548228859901428223e-02 9.620067477226257324e-02 9.620067477226257324e-02 1.005747318267822266e-01 1.005747318267822266e-01 1.668083965778350830e-01 1.668083965778350830e-01 1.899495124816894531e-01 1.899495124816894531e-01 2.077277898788452148e-01 2.077277898788452148e-01 1.909002363681793213e-01 1.909002363681793213e-01 2.139361202716827393e-01 2.139361202716827393e-01 2.328653335571289062e-01 2.328653335571289062e-01 1.721790730953216553e-01 1.721790730953216553e-01 1.914792656898498535e-01 1.914792656898498535e-01 2.118947505950927734e-01 2.118947505950927734e-01 2.315904498100280762e-01 2.315904498100280762e-01 2.287063300609588623e-01 2.287063300609588623e-01 2.103030085563659668e-01 2.103030085563659668e-01 1.482292115688323975e-01 1.482292115688323975e-01 1.235375404357910156e-01 1.235375404357910156e-01 1.006630063056945801e-01 1.006630063056945801e-01 4.311239719390869141e-02 4.311239719390869141e-02 6.709560751914978027e-03 6.709560751914978027e-03 3.185689449310302734e-02 3.185689449310302734e-02 1.544246077537536621e-02 1.544246077537536621e-02 3.916147351264953613e-02 3.916147351264953613e-02 4.234653711318969727e-02 4.234653711318969727e-02 4.559883475303649902e-02 4.559883475303649902e-02 1.046731472015380859e-01 1.046731472015380859e-01 1.330852210521697998e-01 1.330852210521697998e-01 1.793856620788574219e-01 1.793856620788574219e-01 1.841641366481781006e-01 1.841641366481781006e-01 1.866227388381958008e-01 1.866227388381958008e-01 2.014620304107666016e-01 2.014620304107666016e-01 1.706632375717163086e-01 1.706632375717163086e-01 1.077781319618225098e-01 1.077781319618225098e-01 1.697269082069396973e-01 1.697269082069396973e-01 1.971312463283538818e-01 1.971312463283538818e-01 1.982061266899108887e-01 1.982061266899108887e-01 1.819680929183959961e-01 1.819680929183959961e-01 1.436427831649780273e-01 1.436427831649780273e-01 1.884805858135223389e-01 1.884805858135223389e-01 2.087337970733642578e-01 2.087337970733642578e-01 1.806593239307403564e-01 1.806593239307403564e-01 1.451346576213836670e-01 1.451346576213836670e-01 7.046583294868469238e-02 7.046583294868469238e-02 2.254173159599304199e-03 2.254173159599304199e-03 -5.173246562480926514e-02 -5.173246562480926514e-02 -1.747636497020721436e-02 -1.747636497020721436e-02 -4.835084080696105957e-03 -4.835084080696105957e-03 2.359417080879211426e-02 2.359417080879211426e-02 4.464262723922729492e-02 4.464262723922729492e-02 6.362015008926391602e-02 6.362015008926391602e-02 9.448736906051635742e-02 9.448736906051635742e-02 1.476860642433166504e-01 1.476860642433166504e-01 1.426959037780761719e-01 1.426959037780761719e-01 1.935759186744689941e-01 1.935759186744689941e-01 1.952219605445861816e-01 1.952219605445861816e-01 1.993726193904876709e-01 1.993726193904876709e-01 2.393518686294555664e-01 2.393518686294555664e-01 2.295243740081787109e-01 2.295243740081787109e-01 2.024783790111541748e-01 2.024783790111541748e-01 2.276061475276947021e-01 2.276061475276947021e-01 1.766677200794219971e-01 1.766677200794219971e-01 1.926995813846588135e-01 1.926995813846588135e-01 2.294639945030212402e-01 2.294639945030212402e-01 2.277219891548156738e-01 2.277219891548156738e-01 1.846524775028228760e-01 1.846524775028228760e-01 1.848421692848205566e-01 1.848421692848205566e-01 1.654471755027770996e-01 1.654471755027770996e-01 1.033863127231597900e-01 1.033863127231597900e-01 6.807866692543029785e-02 6.807866692543029785e-02 6.005632877349853516e-02 6.005632877349853516e-02 4.388618469238281250e-02 4.388618469238281250e-02 3.077012300491333008e-02 3.077012300491333008e-02 5.566492676734924316e-02 5.566492676734924316e-02 8.938607573509216309e-02 8.938607573509216309e-02 1.104260385036468506e-01 1.104260385036468506e-01 1.624366939067840576e-01 1.624366939067840576e-01 2.012616097927093506e-01 2.012616097927093506e-01 1.984081864356994629e-01 1.984081864356994629e-01 2.289562821388244629e-01 2.289562821388244629e-01 2.585251331329345703e-01 2.585251331329345703e-01 2.485451102256774902e-01 2.485451102256774902e-01 2.529422640800476074e-01 2.529422640800476074e-01 2.313134670257568359e-01 2.313134670257568359e-01 2.133900821208953857e-01 2.133900821208953857e-01 2.495302259922027588e-01 2.495302259922027588e-01 2.197773158550262451e-01 2.197773158550262451e-01 2.289219498634338379e-01 2.289219498634338379e-01 2.470356225967407227e-01 2.470356225967407227e-01 2.263365983963012695e-01 2.263365983963012695e-01 1.775540113449096680e-01 1.775540113449096680e-01 1.201862990856170654e-01 1.201862990856170654e-01 8.834162354469299316e-02 8.834162354469299316e-02 3.923532366752624512e-02 3.923532366752624512e-02 1.469182968139648438e-02 1.469182968139648438e-02 2.057448029518127441e-02 2.057448029518127441e-02 2.574640512466430664e-02 2.574640512466430664e-02 3.776115179061889648e-02 3.776115179061889648e-02 7.728144526481628418e-02 7.728144526481628418e-02 1.001943051815032959e-01 1.001943051815032959e-01 1.240447461605072021e-01 1.240447461605072021e-01 2.044909894466400146e-01 2.044909894466400146e-01 2.042546272277832031e-01 2.042546272277832031e-01 1.439427733421325684e-01 1.439427733421325684e-01 1.706051528453826904e-01 1.706051528453826904e-01 1.912105977535247803e-01 1.912105977535247803e-01 2.228132188320159912e-01 2.228132188320159912e-01 2.094731330871582031e-01 2.094731330871582031e-01 2.024719417095184326e-01 2.024719417095184326e-01 2.121849358081817627e-01 2.121849358081817627e-01 2.309906780719757080e-01 2.309906780719757080e-01 1.768036782741546631e-01 1.768036782741546631e-01 1.705719828605651855e-01 1.705719828605651855e-01 1.721388995647430420e-01 1.721388995647430420e-01 1.725159883499145508e-01 1.725159883499145508e-01 1.489257514476776123e-01 1.489257514476776123e-01 1.085758507251739502e-01 1.085758507251739502e-01 5.225893855094909668e-02 5.225893855094909668e-02 2.323257923126220703e-02 2.323257923126220703e-02 -6.457403302192687988e-03 -6.457403302192687988e-03 -8.828863501548767090e-03 -8.828863501548767090e-03 -1.068377494812011719e-02 -1.068377494812011719e-02 1.771599054336547852e-02 1.771599054336547852e-02 2.792370319366455078e-02 2.792370319366455078e-02 4.650175571441650391e-02 4.650175571441650391e-02 6.587219238281250000e-02 6.587219238281250000e-02 1.057740151882171631e-01 1.057740151882171631e-01 1.308690905570983887e-01 1.308690905570983887e-01 1.333351731300354004e-01 1.333351731300354004e-01 1.445215940475463867e-01 1.445215940475463867e-01 1.598410606384277344e-01 1.598410606384277344e-01 1.694599688053131104e-01 1.694599688053131104e-01 1.377849280834197998e-01 1.377849280834197998e-01 1.532638967037200928e-01 1.532638967037200928e-01 1.591354608535766602e-01 1.591354608535766602e-01 1.577956378459930420e-01 1.577956378459930420e-01 1.284498274326324463e-01 1.284498274326324463e-01 1.436595916748046875e-01 1.436595916748046875e-01 1.261928975582122803e-01 1.261928975582122803e-01 7.872748374938964844e-02 7.872748374938964844e-02 3.585821390151977539e-02 3.585821390151977539e-02 -8.201450109481811523e-04 -8.201450109481811523e-04 -4.355391860008239746e-02 -4.355391860008239746e-02 -4.328076541423797607e-02 -4.328076541423797607e-02 -2.994574606418609619e-02 -2.994574606418609619e-02 -2.492019534111022949e-02 -2.492019534111022949e-02 2.624049782752990723e-03 2.624049782752990723e-03 1.482254266738891602e-02 1.482254266738891602e-02 4.749885201454162598e-02 4.749885201454162598e-02 6.385642290115356445e-02 6.385642290115356445e-02 1.243499815464019775e-01 1.243499815464019775e-01 1.221117079257965088e-01 1.221117079257965088e-01 1.321759223937988281e-01 1.321759223937988281e-01 1.328252255916595459e-01 1.328252255916595459e-01 1.445911228656768799e-01 1.445911228656768799e-01 1.277118623256683350e-01 1.277118623256683350e-01 1.242453455924987793e-01 1.242453455924987793e-01 1.277408599853515625e-01 1.277408599853515625e-01 1.191362440586090088e-01 1.191362440586090088e-01 1.657773256301879883e-01 1.657773256301879883e-01 1.571527123451232910e-01 1.571527123451232910e-01 1.680554151535034180e-01 1.680554151535034180e-01 1.577370166778564453e-01 1.577370166778564453e-01 1.124914586544036865e-01 1.124914586544036865e-01 3.350195288658142090e-02 3.350195288658142090e-02 -2.111929655075073242e-02 -2.111929655075073242e-02 -3.088958561420440674e-02 -3.088958561420440674e-02 -3.866909444332122803e-02 -3.866909444332122803e-02 -2.801865339279174805e-02 -2.801865339279174805e-02 -8.368641138076782227e-03 -8.368641138076782227e-03 -6.046295166015625000e-04 -6.046295166015625000e-04 1.480457186698913574e-02 1.480457186698913574e-02 4.034465551376342773e-02 4.034465551376342773e-02 8.896148204803466797e-02 8.896148204803466797e-02 6.855472922325134277e-02 6.855472922325134277e-02 9.164193272590637207e-02 9.164193272590637207e-02 1.151309907436370850e-01 1.151309907436370850e-01 1.142629384994506836e-01 1.142629384994506836e-01 1.149747073650360107e-01 1.149747073650360107e-01 1.228431463241577148e-01 1.228431463241577148e-01 1.142005026340484619e-01 1.142005026340484619e-01 1.503180563449859619e-01 1.503180563449859619e-01
-1.349986493587493896e-01 -1.349986493587493896e-01 -1.271471977233886719e-01 -1.271471977233886719e-01 -1.078573465347290039e-01 -1.078573465347290039e-01 -1.055258512496948242e-01 -1.055258512496948242e-01 -1.040863394737243652e-01 -1.040863394737243652e-01 -1.068696379661560059e-01 -1.068696379661560059e-01 -8.967462182044982910e-02 -8.967462182044982910e-02 -7.238477468490600586e-02 -7.238477468490600586e-02 -2.393215894699096680e-02 -2.393215894699096680e-02 2.736538648605346680e-03 2.736538648605346680e-03 2.012890577316284180e-02 2.012890577316284180e-02 7.932744920253753662e-02 7.932744920253753662e-02 8.246016502380371094e-02 8.246016502380371094e-02 7.494308054447174072e-02 7.494308054447174072e-02 7.052069902420043945e-02 7.052069902420043945e-02 5.583876371383666992e-02 5.583876371383666992e-02 3.007587790489196777e-02 3.007587790489196777e-02 -2.081733942031860352e-02 -2.081733942031860352e-02 -7.420629262924194336e-02 -7.420629262924194336e-02 -1.373448669910430908e-01 -1.373448669910430908e-01 -1.498065888881683350e-01 -1.498065888881683350e-01 -1.803639233112335205e-01 -1.803639233112335205e-01 -1.886968612670898438e-01 -1.886968612670898438e-01 -1.887493729591369629e-01 -1.887493729591369629e-01 -1.376802027225494385e-01 -1.376802027225494385e-01 -1.400704383850097656e-01 -1.400704383850097656e-01 -1.197033822536468506e-01 -1.197033822536468506e-01 -1.082168817520141602e-01 -1.082168817520141602e-01 -9.214055538177490234e-02 -9.214055538177490234e-02 -1.064642369747161865e-01 -1.064642369747161865e-01 -1.191046237945556641e-01 -1.191046237945556641e-01 -8.787530660629272461e-02 -8.787530660629272461e-02 -8.334517478942871094e-04 -8.334517478942871094e-04 2.115353941917419434e-02 2.115353941917419434e-02 5.673995614051818848e-02 5.673995614051818848e-02 8.235840499401092529e-02 8.235840499401092529e-02 8.710177242755889893e-02 8.710177242755889893e-02 8.196493983268737793e-02 8.196493983268737793e-02 8.105480670928955078e-02 8.105480670928955078e-02 5.887836217880249023e-02 5.887836217880249023e-02 3.330731391906738281e-02 3.330731391906738281e-02 1.222667098045349121e-02 1.222667098045349121e-02 -2.178388833999633789e-02 -2.178388833999633789e-02 -5.638557672500610352e-02 -5.638557672500610352e-02 -9.478351473808288574e-02 -9.478351473808288574e-02 -1.155872642993927002e-01 -1.155872642993927002e-01 -1.493366956710815430e-01 -1.493366956710815430e-01 -1.017275452613830566e-01 -1.017275452613830566e-01 -1.405320167541503906e-01 -1.405320167541503906e-01 -1.305522620677947998e-01 -1.305522620677947998e-01 -1.244348585605621338e-01 -1.244348585605621338e-01 -1.095250248908996582e-01 -1.095250248908996582e-01 -1.138370633125305176e-01 -1.138370633125305176e-01 -8.136808872222900391e-02 -8.136808872222900391e-02 -6.111261248588562012e-02 -6.111261248588562012e-02 -8.936297893524169922e-02 -8.936297893524169922e-02 -1.036219298839569092e-01 -1.036219298839569092e-01 -5.518132448196411133e-02 -5.518132448196411133e-02 -9.917646646499633789e-03 -9.917646646499633789e-03 2.327513694763183594e-02 2.327513694763183594e-02 7.867248356342315674e-02 7.867248356342315674e-02 6.266486644744873047e-02 6.266486644744873047e-02 8.179859817028045654e-02 8.179859817028045654e-02 7.871644198894500732e-02 7.871644198894500732e-02 4.356676340103149414e-02 4.356676340103149414e-02 7.453769445419311523e-03 7.453769445419311523e-03 -2.304923534393310547e-02 -2.304923534393310547e-02 -7.298585772514343262e-02 -7.298585772514343262e-02 -1.457373201847076416e-01 -1.457373201847076416e-01 -1.545285284519195557e-01 -1.545285284519195557e-01 -1.759877800941467285e-01 -1.759877800941467285e-01 -1.862426400184631348e-01 -1.862426400184631348e-01 -1.570797264575958252e-01 -1.570797264575958252e-01 -1.345924437046051025e-01 -1.345924437046051025e-01 -1.123620569705963135e-01 -1.123620569705963135e-01 -1.340496242046356201e-01 -1.340496242046356201e-01 -1.200600564479827881e-01 -1.200600564479827881e-01 -8.495455980300903320e-02 -8.495455980300903320e-02 -8.098220825195312500e-02 -8.098220825195312500e-02 -9.853056073188781738e-02 -9.853056073188781738e-02 -5.591031908988952637e-02 -5.591031908988952637e-02 -4.901540279388427734e-02 -4.901540279388427734e-02 -5.156546831130981445e-03 -5.156546831130981445e-03 2.601772546768188477e-02 2.601772546768188477e-02 6.826516985893249512e-02 6.826516985893249512e-02 6.878016889095306396e-02 6.878016889095306396e-02 4.953050613403320312e-02 4.953050613403320312e-02 6.885853409767150879e-02 6.885853409767150879e-02 4.568287730216979980e-02 4.568287730216979980e-02 1.170730590820312500e-02 1.170730590820312500e-02 -4.613307118415832520e-02 -4.613307118415832520e-02 -8.636260032653808594e-02 -8.636260032653808594e-02 -1.253139972686767578e-01 -1.253139972686767578e-01 -1.316289007663726807e-01 -1.316289007663726807e-01 -1.471447348594665527e-01 -1.471447348594665527e-01 -1.920079588890075684e-01 -1.920079588890075684e-01 -1.719878911972045898e-01 -1.719878911972045898e-01 -1.340348124504089355e-01 -1.340348124504089355e-01 -1.228505969047546387e-01 -1.228505969047546387e-01 -1.229278743267059326e-01 -1.229278743267059326e-01 -1.493155062198638916e-01 -1.493155062198638916e-01 -9.571135044097900391e-02 -9.571135044097900391e-02 -5.239018797874450684e-02 -5.239018797874450684e-02 -8.448898792266845703e-02 -8.448898792266845703e-02 -6.547233462333679199e-02 -6.547233462333679199e-02 -5.009648203849792480e-02 -5.009648203849792480e-02 -5.985081195831298828e-03 -5.985081195831298828e-03 2.977031469345092773e-02 2.977031469345092773e-02 4.777529835700988770e-02 4.777529835700988770e-02 8.214983344078063965e-02 8.214983344078063965e-02 1.286570876836776733e-01 1.286570876836776733e-01 6.690444052219390869e-02 6.690444052219390869e-02 3.884634375572204590e-02 3.884634375572204590e-02 8.989036083221435547e-03 8.989036083221435547e-03 -2.450257539749145508e-03 -2.450257539749145508e-03 1.722383499145507812e-02 1.722383499145507812e-02 -2.063256502151489258e-02 -2.063256502151489258e-02 -8.232298493385314941e-02 -8.232298493385314941e-02 -1.145629584789276123e-01 -1.145629584789276123e-01 -1.355127394199371338e-01 -1.355127394199371338e-01 -1.143605709075927734e-01 -1.143605709075927734e-01 -1.023131608963012695e-01 -1.023131608963012695e-01 -5.805587768554687500e-02 -5.805587768554687500e-02 -7.472604513168334961e-02 -7.472604513168334961e-02 -5.401578545570373535e-02 -5.401578545570373535e-02 -6.862062215805053711e-02 -6.862062215805053711e-02 -7.042995095252990723e-02 -7.042995095252990723e-02 -7.412683963775634766e-02 -7.412683963775634766e-02 -8.236449956893920898e-02 -8.236449956893920898e-02 -8.735916018486022949e-02 -8.735916018486022949e-02 -6.031331419944763184e-02 -6.031331419944763184e-02 -1.059776544570922852e-02 -1.059776544570922852e-02 2.619415521621704102e-02 2.619415521621704102e-02 5.287337303161621094e-02 5.287337303161621094e-02 6.437051296234130859e-02 6.437051296234130859e-02 8.271612226963043213e-02 8.271612226963043213e-02 7.974715530872344971e-02 7.974715530872344971e-02 4.471510648727416992e-02 4.471510648727416992e-02 3.297933936119079590e-02 3.297933936119079590e-02 -5.088111758232116699e-02 -5.088111758232116699e-02 -1.247726678848266602e-01 -1.247726678848266602e-01 -1.722657084465026855e-01 -1.722657084465026855e-01 -1.793536245822906494e-01 -1.793536245822906494e-01 -2.399141192436218262e-01 -2.399141192436218262e-01 -2.385588288307189941e-01 -2.385588288307189941e-01 -2.090433835983276367e-01 -2.090433835983276367e-01 -1.745730340480804443e-01 -1.745730340480804443e-01 -1.517504453659057617e-01 -1.517504453659057617e-01 -1.335038542747497559e-01 -1.335038542747497559e-01 -1.006596982479095459e-01 -1.006596982479095459e-01 -1.358749866485595703e-01 -1.358749866485595703e-01 -1.538673341274261475e-01 -1.538673341274261475e-01 -1.404933631420135498e-01 -1.404933631420135498e-01 -1.499848365783691406e-01 -1.499848365783691406e-01 -1.189683675765991211e-01 -1.189683675765991211e-01 -3.391617536544799805e-02 -3.391617536544799805e-02 -2.199113368988037109e-04 -2.199113368988037109e-04 2.449393272399902344e-02 2.449393272399902344e-02 4.998981952667236328e-02 4.998981952667236328e-02 5.853292346000671387e-02 5.853292346000671387e-02 5.203345417976379395e-02 5.203345417976379395e-02 3.724905848503112793e-02 3.724905848503112793e-02 -2.417376637458801270e-02 -2.417376637458801270e-02 -4.097089171409606934e-02 -4.097089171409606934e-02 -9.104216098785400391e-02 -9.104216098785400391e-02 -1.621844172477722168e-01 -1.621844172477722168e-01 -2.053758502006530762e-01 -2.053758502006530762e-01 -2.051394581794738770e-01 -2.051394581794738770e-01 -2.127582430839538574e-01 -2.127582430839538574e-01 -2.322402000427246094e-01 -2.322402000427246094e-01 -1.791159212589263916e-01 -1.791159212589263916e-01 -1.367689371109008789e-01 -1.367689371109008789e-01 -1.186584830284118652e-01 -1.186584830284118652e-01 -8.971214294433593750e-02 -8.971214294433593750e-02 -8.417281508445739746e-02 -8.417281508445739746e-02 -1.386134028434753418e-01 -1.386134028434753418e-01 -1.334511041641235352e-01 -1.334511041641235352e-01 -9.977585077285766602e-02 -9.977585077285766602e-02 -7.006168365478515625e-02 -7.006168365478515625e-02 -6.828516721725463867e-03 -6.828516721725463867e-03 7.088130712509155273e-02 7.088130712509155273e-02 8.972406387329101562e-02 8.972406387329101562e-02 9.536363184452056885e-02 9.536363184452056885e-02 8.391077816486358643e-02 8.391077816486358643e-02 7.983469963073730469e-02 7.983469963073730469e-02 5.745822191238403320e-02 5.745822191238403320e-02 1.327347755432128906e-02 1.327347755432128906e-02 -2.408432960510253906e-02 -2.408432960510253906e-02 1.482814550399780273e-03 1.482814550399780273e-03 -2.575975656509399414e-02 -2.575975656509399414e-02 -6.402966380119323730e-02 -6.402966380119323730e-02 -1.019951403141021729e-01 -1.019951403141021729e-01 -1.289821565151214600e-01 -1.289821565151214600e-01 -1.428129971027374268e-01 -1.428129971027374268e-01 -1.429510116577148438e-01 -1.429510116577148438e-01 -1.738116443157196045e-01 -1.738116443157196045e-01 -1.632141470909118652e-01 -1.632141470909118652e-01 -1.523996889591217041e-01 -1.523996889591217041e-01 -1.437040269374847412e-01 -1.437040269374847412e-01 -1.322347521781921387e-01 -1.322347521781921387e-01 -1.157260239124298096e-01 -1.157260239124298096e-01 -9.972602128982543945e-02 -9.972602128982543945e-02 -7.434332370758056641e-02 -7.434332370758056641e-02 -5.145159363746643066e-02 -5.145159363746643066e-02 3.835499286651611328e-03 3.835499286651611328e-03 3.482061624526977539e-02 3.482061624526977539e-02 7.213230431079864502e-02 7.213230431079864502e-02 6.918838620185852051e-02 6.918838620185852051e-02 6.781402230262756348e-02 6.781402230262756348e-02 7.879833877086639404e-02 7.879833877086639404e-02 4.286167025566101074e-02 4.286167025566101074e-02 5.201429128646850586e-03 5.201429128646850586e-03 -2.371475100517272949e-02 -2.371475100517272949e-02 -3.305819630622863770e-02 -3.305819630622863770e-02 -8.641505241394042969e-02 -8.641505241394042969e-02 -1.315053701400756836e-01 -1.315053701400756836e-01 -1.231382787227630615e-01 -1.231382787227630615e-01 -1.258668303489685059e-01 -1.258668303489685059e-01 -1.122262775897979736e-01 -1.122262775897979736e-01 -9.354576468467712402e-02 -9.354576468467712402e-02 -8.057531714439392090e-02 -8.057531714439392090e-02 -7.482513785362243652e-02 -7.482513785362243652e-02 -6.206277012825012207e-02 -6.206277012825012207e-02 -6.671905517578125000e-02 -6.671905517578125000e-02 -6.534793972969055176e-02 -6.534793972969055176e-02 -7.029020786285400391e-02 -7.029020786285400391e-02 -5.808037519454956055e-02 -5.808037519454956055e-02 -3.214859962463378906e-02 -3.214859962463378906e-02 1.253649592399597168e-02 1.253649592399597168e-02 5.087801814079284668e-02 5.087801814079284668e-02 8.419698476791381836e-02 8.419698476791381836e-02 1.082062423229217529e-01 1.082062423229217529e-01 1.012690216302871704e-01 1.012690216302871704e-01 9.687234461307525635e-02 9.687234461307525635e-02 7.704120874404907227e-02 7.704120874404907227e-02 5.398330092430114746e-02 5.398330092430114746e-02 3.753304481506347656e-04 3.753304481506347656e-04 -3.264933824539184570e-02 -3.264933824539184570e-02 -8.929261565208435059e-02 -8.929261565208435059e-02 -1.229348778724670410e-01 -1.229348778724670410e-01 -1.580296158790588379e-01 -1.580296158790588379e-01 -1.436377763748168945e-01 -1.436377763748168945e-01 -1.226164102554321289e-01 -1.226164102554321289e-01 -1.162894964218139648e-01 -1.162894964218139648e-01 -7.962742447853088379e-02 -7.962742447853088379e-02 -7.470381259918212891e-02 -7.470381259918212891e-02 -6.453523039817810059e-02 -6.453523039817810059e-02 -6.207075715065002441e-02 -6.207075715065002441e-02 -7.577356696128845215e-02 -7.577356696128845215e-02 -8.650344610214233398e-02 -8.650344610214233398e-02 -1.274649202823638916e-01 -1.274649202823638916e-01 -1.347440183162689209e-01 -1.347440183162689209e-01 -7.697319984436035156e-02 -7.697319984436035156e-02 -1.248973608016967773e-02 -1.248973608016967773e-02 3.977432847023010254e-02 3.977432847023010254e-02 6.054577231407165527e-02 6.054577231407165527e-02 7.756130397319793701e-02 7.756130397319793701e-02 8.593551814556121826e-02 8.593551814556121826e-02 3.411993384361267090e-02 3.411993384361267090e-02
1.210146993398666382e-01 1.210146993398666382e-01 1.210182905197143555e-01 1.210182905197143555e-01 1.211729794740676880e-01 1.211729794740676880e-01 1.211941391229629517e-01 1.211941391229629517e-01 1.212113276124000549e-01 1.212113276124000549e-01 1.212205216288566589e-01 1.212205216288566589e-01 1.212252601981163025e-01 1.212252601981163025e-01 1.212071478366851807e-01 1.212071478366851807e-01 1.211664676666259766e-01 1.211664676666259766e-01 1.212190985679626465e-01 1.212190985679626465e-01 1.212422698736190796e-01 1.212422698736190796e-01 1.210949122905731201e-01 1.210949122905731201e-01 1.210976317524909973e-01 1.210976317524909973e-01 1.210516244173049927e-01 1.210516244173049927e-01 1.210254281759262085e-01 1.210254281759262085e-01 1.209112480282783508e-01 1.209112480282783508e-01 1.208031624555587769e-01 1.208031624555587769e-01 1.207795962691307068e-01 1.207795962691307068e-01 1.208410263061523438e-01 1.208410263061523438e-01 1.208995580673217773e-01 1.208995580673217773e-01 1.208399981260299683e-01 1.208399981260299683e-01 1.208818554878234863e-01 1.208818554878234863e-01 1.208848729729652405e-01 1.208848729729652405e-01 1.209481507539749146e-01 1.209481507539749146e-01 1.209572628140449524e-01 1.209572628140449524e-01 1.209644824266433716e-01 1.209644824266433716e-01 1.209682077169418335e-01 1.209682077169418335e-01 1.212541759014129639e-01 1.212541759014129639e-01 1.212659925222396851e-01 1.212659925222396851e-01 1.212921366095542908e-01 1.212921366095542908e-01 1.213047578930854797e-01 1.213047578930854797e-01 1.212675347924232483e-01 1.212675347924232483e-01 1.210954189300537109e-01 1.210954189300537109e-01 1.210714876651763916e-01 1.210714876651763916e-01 1.211039349436759949e-01 1.211039349436759949e-01 1.210303083062171936e-01 1.210303083062171936e-01 1.210724562406539917e-01 1.210724562406539917e-01 1.210713982582092285e-01 1.210713982582092285e-01 1.209901571273803711e-01 1.209901571273803711e-01 1.208803504705429077e-01 1.208803504705429077e-01 1.220267117023468018e-01 1.220267117023468018e-01 1.208756938576698303e-01 1.208756938576698303e-01 1.209185793995857239e-01 1.209185793995857239e-01 1.208457127213478088e-01 1.208457127213478088e-01 1.220976188778877258e-01 1.220976188778877258e-01 1.209886074066162109e-01 1.209886074066162109e-01 1.209748536348342896e-01 1.209748536348342896e-01 1.208028420805931091e-01 1.208028420805931091e-01 1.207582801580429077e-01 1.207582801580429077e-01 1.211471185088157654e-01 1.211471185088157654e-01 1.212475225329399109e-01 1.212475225329399109e-01 1.213135495781898499e-01 1.213135495781898499e-01 1.213423982262611389e-01 1.213423982262611389e-01 1.213591471314430237e-01 1.213591471314430237e-01 1.213677972555160522e-01 1.213677972555160522e-01 1.213963106274604797e-01 1.213963106274604797e-01 1.214248612523078918e-01 1.214248612523078918e-01 1.212921813130378723e-01 1.212921813130378723e-01 1.213002949953079224e-01 1.213002949953079224e-01 1.212906613945960999e-01 1.212906613945960999e-01 1.212853863835334778e-01 1.212853863835334778e-01 1.212609186768531799e-01 1.212609186768531799e-01 1.212567165493965149e-01 1.212567165493965149e-01 1.210843473672866821e-01 1.210843473672866821e-01 1.209990233182907104e-01 1.209990233182907104e-01 1.209739372134208679e-01 1.209739372134208679e-01 1.208862289786338806e-01 1.208862289786338806e-01 1.209269762039184570e-01 1.209269762039184570e-01 1.210020780563354492e-01 1.210020780563354492e-01 1.208897456526756287e-01 1.208897456526756287e-01 1.209582462906837463e-01 1.209582462906837463e-01 1.209601461887359619e-01 1.209601461887359619e-01 1.209643557667732239e-01 1.209643557667732239e-01 1.209668442606925964e-01 1.209668442606925964e-01 1.212524846196174622e-01 1.212524846196174622e-01 1.212870627641677856e-01 1.212870627641677856e-01 1.213162094354629517e-01 1.213162094354629517e-01 1.214287430047988892e-01 1.214287430047988892e-01 1.213739961385726929e-01 1.213739961385726929e-01 1.214022636413574219e-01 1.214022636413574219e-01 1.212493628263473511e-01 1.212493628263473511e-01 1.213862448930740356e-01 1.213862448930740356e-01 1.213414371013641357e-01 1.213414371013641357e-01 1.213198825716972351e-01 1.213198825716972351e-01 1.211920231580734253e-01 1.211920231580734253e-01 1.212334930896759033e-01 1.212334930896759033e-01 1.212685033679008484e-01 1.212685033679008484e-01 1.209727451205253601e-01 1.209727451205253601e-01 1.209553033113479614e-01 1.209553033113479614e-01 1.209590509533882141e-01 1.209590509533882141e-01 1.222788244485855103e-01 1.222788244485855103e-01 1.211039423942565918e-01 1.211039423942565918e-01 1.210493966937065125e-01 1.210493966937065125e-01 1.209004297852516174e-01 1.209004297852516174e-01 1.208538934588432312e-01 1.208538934588432312e-01 1.208246201276779175e-01 1.208246201276779175e-01 1.208092346787452698e-01 1.208092346787452698e-01 1.208017542958259583e-01 1.208017542958259583e-01 1.211876720190048218e-01 1.211876720190048218e-01 1.212331503629684448e-01 1.212331503629684448e-01 1.214459687471389771e-01 1.214459687471389771e-01 1.214881986379623413e-01 1.214881986379623413e-01 1.212596744298934937e-01 1.212596744298934937e-01 1.213283836841583252e-01 1.213283836841583252e-01 1.212550178170204163e-01 1.212550178170204163e-01 1.213095411658287048e-01 1.213095411658287048e-01 1.212645545601844788e-01 1.212645545601844788e-01 1.212605163455009460e-01 1.212605163455009460e-01 1.212564036250114441e-01 1.212564036250114441e-01 1.212541610002517700e-01 1.212541610002517700e-01 1.208129748702049255e-01 1.208129748702049255e-01 1.209980323910713196e-01 1.209980323910713196e-01 1.209816336631774902e-01 1.209816336631774902e-01 1.208927780389785767e-01 1.208927780389785767e-01 1.207242086529731750e-01 1.207242086529731750e-01 1.206978335976600647e-01 1.206978335976600647e-01 1.206785142421722412e-01 1.206785142421722412e-01 1.220708638429641724e-01 1.220708638429641724e-01 1.222325637936592102e-01 1.222325637936592102e-01 1.211580857634544373e-01 1.211580857634544373e-01 1.210883408784866333e-01 1.210883408784866333e-01 1.210497841238975525e-01 1.210497841238975525e-01 1.209629029035568237e-01 1.209629029035568237e-01 1.211572661995887756e-01 1.211572661995887756e-01 1.211667805910110474e-01 1.211667805910110474e-01 1.212651208043098450e-01 1.212651208043098450e-01 1.213531494140625000e-01 1.213531494140625000e-01 1.213510781526565552e-01 1.213510781526565552e-01 1.213866770267486572e-01 1.213866770267486572e-01 1.213947087526321411e-01 1.213947087526321411e-01 1.212863773107528687e-01 1.212863773107528687e-01 1.212965175509452820e-01 1.212965175509452820e-01 1.212467923760414124e-01 1.212467923760414124e-01 1.212382763624191284e-01 1.212382763624191284e-01 1.212312877178192139e-01 1.212312877178192139e-01 1.211874783039093018e-01 1.211874783039093018e-01 1.211428120732307434e-01 1.211428120732307434e-01 1.211714595556259155e-01 1.211714595556259155e-01 1.209821626543998718e-01 1.209821626543998718e-01 1.210233718156814575e-01 1.210233718156814575e-01 1.210636422038078308e-01 1.210636422038078308e-01 1.210846379399299622e-01 1.210846379399299622e-01 1.210384741425514221e-01 1.210384741425514221e-01 1.211260259151458740e-01 1.211260259151458740e-01 1.211340725421905518e-01 1.211340725421905518e-01 1.211419105529785156e-01 1.211419105529785156e-01 1.212477087974548340e-01 1.212477087974548340e-01 1.212620139122009277e-01 1.212620139122009277e-01 1.214152052998542786e-01 1.214152052998542786e-01 1.214378252625465393e-01 1.214378252625465393e-01 1.214549168944358826e-01 1.214549168944358826e-01 1.214634999632835388e-01 1.214634999632835388e-01 1.214421316981315613e-01 1.214421316981315613e-01 1.214919909834861755e-01 1.214919909834861755e-01 1.214694604277610779e-01 1.214694604277610779e-01 1.214697062969207764e-01 1.214697062969207764e-01 1.214183941483497620e-01 1.214183941483497620e-01 1.214114427566528320e-01 1.214114427566528320e-01 1.213584393262863159e-01 1.213584393262863159e-01 1.213496327400207520e-01 1.213496327400207520e-01 1.212562695145606995e-01 1.212562695145606995e-01 1.211110502481460571e-01 1.211110502481460571e-01 1.211386546492576599e-01 1.211386546492576599e-01 1.210074499249458313e-01 1.210074499249458313e-01 1.209893599152565002e-01 1.209893599152565002e-01 1.209757775068283081e-01 1.209757775068283081e-01 1.209693029522895813e-01 1.209693029522895813e-01 1.209665536880493164e-01 1.209665536880493164e-01 1.210314780473709106e-01 1.210314780473709106e-01 1.210395470261573792e-01 1.210395470261573792e-01 1.210468634963035583e-01 1.210468634963035583e-01 1.210510954260826111e-01 1.210510954260826111e-01 1.212720498442649841e-01 1.212720498442649841e-01 1.212992593646049500e-01 1.212992593646049500e-01 1.213219314813613892e-01 1.213219314813613892e-01 1.214840561151504517e-01 1.214840561151504517e-01 1.214292421936988831e-01 1.214292421936988831e-01 1.214129403233528137e-01 1.214129403233528137e-01 1.214106529951095581e-01 1.214106529951095581e-01 1.212737038731575012e-01 1.212737038731575012e-01 1.210129633545875549e-01 1.210129633545875549e-01 1.210628300905227661e-01 1.210628300905227661e-01 1.210754662752151489e-01 1.210754662752151489e-01 1.211265400052070618e-01 1.211265400052070618e-01 1.210268437862396240e-01 1.210268437862396240e-01 1.209884509444236755e-01 1.209884509444236755e-01 1.209473833441734314e-01 1.209473833441734314e-01 1.209084317088127136e-01 1.209084317088127136e-01 1.207705438137054443e-01 1.207705438137054443e-01 1.207269951701164246e-01 1.207269951701164246e-01 1.207551658153533936e-01 1.207551658153533936e-01 1.219798773527145386e-01 1.219798773527145386e-01 1.221254318952560425e-01 1.221254318952560425e-01 1.211118102073669434e-01 1.211118102073669434e-01 1.210569441318511963e-01 1.210569441318511963e-01 1.209779009222984314e-01 1.209779009222984314e-01 1.210949569940567017e-01 1.210949569940567017e-01 1.211452707648277283e-01 1.211452707648277283e-01 1.211947798728942871e-01 1.211947798728942871e-01 1.212071701884269714e-01 1.212071701884269714e-01 1.212159544229507446e-01 1.212159544229507446e-01 1.211810111999511719e-01 1.211810111999511719e-01 1.211411431431770325e-01 1.211411431431770325e-01 1.226353198289871216e-01 1.226353198289871216e-01 1.227339357137680054e-01 1.227339357137680054e-01 1.228736564517021179e-01 1.228736564517021179e-01 1.214310824871063232e-01 1.214310824871063232e-01 1.213385313749313354e-01 1.213385313749313354e-01 1.212070658802986145e-01 1.212070658802986145e-01 1.210224777460098267e-01 1.210224777460098267e-01 1.209694147109985352e-01 1.209694147109985352e-01 1.208539679646492004e-01 1.208539679646492004e-01 1.208292096853256226e-01 1.208292096853256226e-01 1.206862628459930420e-01 1.206862628459930420e-01 1.207445189356803894e-01 1.207445189356803894e-01 1.207647696137428284e-01 1.207647696137428284e-01 1.207105666399002075e-01 1.207105666399002075e-01 1.207319647073745728e-01 1.207319647073745728e-01 1.207335442304611206e-01 1.207335442304611206e-01 1.207361444830894470e-01 1.207361444830894470e-01 1.210338324308395386e-01 1.210338324308395386e-01 1.211272999644279480e-01 1.211272999644279480e-01 1.211255192756652832e-01 1.211255192756652832e-01 1.212021261453628540e-01 1.212021261453628540e-01 1.212165206670761108e-01 1.212165206670761108e-01 1.212464869022369385e-01 1.212464869022369385e-01 1.212117075920104980e-01 1.212117075920104980e-01 1.212512329220771790e-01 1.212512329220771790e-01 1.211726665496826172e-01 1.211726665496826172e-01 1.210926100611686707e-01 1.210926100611686707e-01 1.210593730211257935e-01 1.210593730211257935e-01 1.210290491580963135e-01 1.210290491580963135e-01 1.209715157747268677e-01 1.209715157747268677e-01 1.209448873996734619e-01 1.209448873996734619e-01 1.208648160099983215e-01 1.208648160099983215e-01 1.207416951656341553e-01 1.207416951656341553e-01 1.207778304815292358e-01 1.207778304815292358e-01 1.207692325115203857e-01 1.207692325115203857e-01 1.208187788724899292e-01 1.208187788724899292e-01 1.208245605230331421e-01 1.208245605230331421e-01 1.208576112985610962e-01 1.208576112985610962e-01 1.208108663558959961e-01 1.208108663558959961e-01 1.208356991410255432e-01 1.208356991410255432e-01 1.208361610770225525e-01 1.208361610770225525e-01 1.210765466094017029e-01 1.210765466094017029e-01 1.211054921150207520e-01 1.211054921150207520e-01 1.211299151182174683e-01 1.211299151182174683e-01 1.212020069360733032e-01 1.212020069360733032e-01 1.211754605174064636e-01 1.211754605174064636e-01 1.211794614791870117e-01 1.211794614791870117e-01 1.211412623524665833e-01 1.211412623524665833e-01 1.209715455770492554e-01 1.209715455770492554e-01 1.210411339998245239e-01 1.210411339998245239e-01 1.210496723651885986e-01 1.210496723651885986e-01 1.210007965564727783e-01 1.210007965564727783e-01 1.209960430860519409e-01 1.209960430860519409e-01 1.209760531783103943e-01 1.209760531783103943e-01 1.208845227956771851e-01 1.208845227956771851e-01 1.208717152476310730e-01 1.208717152476310730e-01
8.939133584499359131e-02 8.939133584499359131e-02 8.136551827192306519e-02 8.136551827192306519e-02 8.419334143400192261e-02 8.419334143400192261e-02 7.528761774301528931e-02 7.528761774301528931e-02 8.073148876428604126e-02 8.073148876428604126e-02 9.027720242738723755e-02 9.027720242738723755e-02 9.322851896286010742e-02 9.322851896286010742e-02 8.675410598516464233e-02 8.675410598516464233e-02 7.114327698945999146e-02 7.114327698945999146e-02 7.877744734287261963e-02 7.877744734287261963e-02 7.942132651805877686e-02 7.942132651805877686e-02 8.539293706417083740e-02 8.539293706417083740e-02 8.669370412826538086e-02 8.669370412826538086e-02 8.798548579216003418e-02 8.798548579216003418e-02 7.594758272171020508e-02 7.594758272171020508e-02 7.895836234092712402e-02 7.895836234092712402e-02 8.929385244846343994e-02 8.929385244846343994e-02 8.953897655010223389e-02 8.953897655010223389e-02 9.505230188369750977e-02 9.505230188369750977e-02 9.507110714912414551e-02 9.507110714912414551e-02 9.741390496492385864e-02 9.741390496492385864e-02 9.645134210586547852e-02 9.645134210586547852e-02 9.606514126062393188e-02 9.606514126062393188e-02 9.430339187383651733e-02 9.430339187383651733e-02 9.857112914323806763e-02 9.857112914323806763e-02 9.495827555656433105e-02 9.495827555656433105e-02 9.296327084302902222e-02 9.296327084302902222e-02 9.099844098091125488e-02 9.099844098091125488e-02 9.100371599197387695e-02 9.100371599197387695e-02 8.296201378107070923e-02 8.296201378107070923e-02 8.086910843849182129e-02 8.086910843849182129e-02 8.931659907102584839e-02 8.931659907102584839e-02 8.889549970626831055e-02 8.889549970626831055e-02 8.505218476057052612e-02 8.505218476057052612e-02 8.535376191139221191e-02 8.535376191139221191e-02 7.978145033121109009e-02 7.978145033121109009e-02 8.435172587633132935e-02 8.435172587633132935e-02 8.479018509387969971e-02 8.479018509387969971e-02 8.878026157617568970e-02 8.878026157617568970e-02 8.701386302709579468e-02 8.701386302709579468e-02 8.877491950988769531e-02 8.877491950988769531e-02 9.281779080629348755e-02 9.281779080629348755e-02 9.117985516786575317e-02 9.117985516786575317e-02 9.780157357454299927e-02 9.780157357454299927e-02 9.292387217283248901e-02 9.292387217283248901e-02 8.015274256467819214e-02 8.015274256467819214e-02 8.179654181003570557e-02 8.179654181003570557e-02 8.044984936714172363e-02 8.044984936714172363e-02 6.522791832685470581e-02 6.522791832685470581e-02 4.929250478744506836e-02 4.929250478744506836e-02 5.022373795509338379e-02 5.022373795509338379e-02 4.036337137222290039e-02 4.036337137222290039e-02 4.095509648323059082e-02 4.095509648323059082e-02 5.279481410980224609e-02 5.279481410980224609e-02 6.801585108041763306e-02 6.801585108041763306e-02 6.905167549848556519e-02 6.905167549848556519e-02 5.130380392074584961e-02 5.130380392074584961e-02 4.354389011859893799e-02 4.354389011859893799e-02 4.609079658985137939e-02 4.609079658985137939e-02 5.453725904226303101e-02 5.453725904226303101e-02 6.521734595298767090e-02 6.521734595298767090e-02 5.472116917371749878e-02 5.472116917371749878e-02 5.329312384128570557e-02 5.329312384128570557e-02 5.936138331890106201e-02 5.936138331890106201e-02 5.712567269802093506e-02 5.712567269802093506e-02 6.971915811300277710e-02 6.971915811300277710e-02 8.388460427522659302e-02 8.388460427522659302e-02 8.061747997999191284e-02 8.061747997999191284e-02 8.488848060369491577e-02 8.488848060369491577e-02 7.785142958164215088e-02 7.785142958164215088e-02 6.598316878080368042e-02 6.598316878080368042e-02 5.983933806419372559e-02 5.983933806419372559e-02 6.125353276729583740e-02 6.125353276729583740e-02 5.662035942077636719e-02 5.662035942077636719e-02 6.077028065919876099e-02 6.077028065919876099e-02 4.585805535316467285e-02 4.585805535316467285e-02 3.618587553501129150e-02 3.618587553501129150e-02 4.145784676074981689e-02 4.145784676074981689e-02 6.369679421186447144e-02 6.369679421186447144e-02 6.722855567932128906e-02 6.722855567932128906e-02 6.662307679653167725e-02 6.662307679653167725e-02 5.163425207138061523e-02 5.163425207138061523e-02 4.813612997531890869e-02 4.813612997531890869e-02 5.538142472505569458e-02 5.538142472505569458e-02 6.709223240613937378e-02 6.709223240613937378e-02 6.457754224538803101e-02 6.457754224538803101e-02 4.573903977870941162e-02 4.573903977870941162e-02 6.268218904733657837e-02 6.268218904733657837e-02 7.357802987098693848e-02 7.357802987098693848e-02 7.549320161342620850e-02 7.549320161342620850e-02 9.147841483354568481e-02 9.147841483354568481e-02 9.018532931804656982e-02 9.018532931804656982e-02 8.537930995225906372e-02 8.537930995225906372e-02 8.655533939599990845e-02 8.655533939599990845e-02 7.741524279117584229e-02 7.741524279117584229e-02 5.438701808452606201e-02 5.438701808452606201e-02 5.190601944923400879e-02 5.190601944923400879e-02 5.500258505344390869e-02 5.500258505344390869e-02 6.728727370500564575e-02 6.728727370500564575e-02 6.991080939769744873e-02 6.991080939769744873e-02 5.781216174364089966e-02 5.781216174364089966e-02 5.057142674922943115e-02 5.057142674922943115e-02 7.031993567943572998e-02 7.031993567943572998e-02 7.015481591224670410e-02 7.015481591224670410e-02 6.577464938163757324e-02 6.577464938163757324e-02 6.087604165077209473e-02 6.087604165077209473e-02 6.096478551626205444e-02 6.096478551626205444e-02 6.327212601900100708e-02 6.327212601900100708e-02 6.863307952880859375e-02 6.863307952880859375e-02 7.172394543886184692e-02 7.172394543886184692e-02 8.281161636114120483e-02 8.281161636114120483e-02 6.817773729562759399e-02 6.817773729562759399e-02 7.419351488351821899e-02 7.419351488351821899e-02 8.387147635221481323e-02 8.387147635221481323e-02 9.316677600145339966e-02 9.316677600145339966e-02 1.013798639178276062e-01 1.013798639178276062e-01 1.002416387200355530e-01 1.002416387200355530e-01 9.261215478181838989e-02 9.261215478181838989e-02 8.781878650188446045e-02 8.781878650188446045e-02 8.633038401603698730e-02 8.633038401603698730e-02 9.260471910238265991e-02 9.260471910238265991e-02 9.916503727436065674e-02 9.916503727436065674e-02 8.957983553409576416e-02 8.957983553409576416e-02 9.364826232194900513e-02 9.364826232194900513e-02 8.658907562494277954e-02 8.658907562494277954e-02 9.008179605007171631e-02 9.008179605007171631e-02 8.885487169027328491e-02 8.885487169027328491e-02 8.875539153814315796e-02 8.875539153814315796e-02 8.875457942485809326e-02 8.875457942485809326e-02 7.963446527719497681e-02 7.963446527719497681e-02 7.298488914966583252e-02 7.298488914966583252e-02 7.732307165861129761e-02 7.732307165861129761e-02 7.842156291007995605e-02 7.842156291007995605e-02 8.736733347177505493e-02 8.736733347177505493e-02 8.042832463979721069e-02 8.042832463979721069e-02 9.046835452318191528e-02 9.046835452318191528e-02 8.631005883216857910e-02 8.631005883216857910e-02 9.140284359455108643e-02 9.140284359455108643e-02 9.237556159496307373e-02 9.237556159496307373e-02 9.766957163810729980e-02 9.766957163810729980e-02 1.048819273710250854e-01 1.048819273710250854e-01 1.000340729951858521e-01 1.000340729951858521e-01 1.002632007002830505e-01 1.002632007002830505e-01 9.730201214551925659e-02 9.730201214551925659e-02 1.023907586932182312e-01 1.023907586932182312e-01 9.001864492893218994e-02 9.001864492893218994e-02 9.265574812889099121e-02 9.265574812889099121e-02 8.776113390922546387e-02 8.776113390922546387e-02 9.525506943464279175e-02 9.525506943464279175e-02 9.900114685297012329e-02 9.900114685297012329e-02 8.876504749059677124e-02 8.876504749059677124e-02 9.562612324953079224e-02 9.562612324953079224e-02 8.898424357175827026e-02 8.898424357175827026e-02 9.485469013452529907e-02 9.485469013452529907e-02 8.810149878263473511e-02 8.810149878263473511e-02 9.699928015470504761e-02 9.699928015470504761e-02 8.871566504240036011e-02 8.871566504240036011e-02 9.433189034461975098e-02 9.433189034461975098e-02 9.734180569648742676e-02 9.734180569648742676e-02 8.980154991149902344e-02 8.980154991149902344e-02 9.117044508457183838e-02 9.117044508457183838e-02 8.773567527532577515e-02 8.773567527532577515e-02 9.318234026432037354e-02 9.318234026432037354e-02 9.812459349632263184e-02 9.812459349632263184e-02 9.335280209779739380e-02 9.335280209779739380e-02 8.413380384445190430e-02 8.413380384445190430e-02 8.777511864900588989e-02 8.777511864900588989e-02 8.944422006607055664e-02 8.944422006607055664e-02 9.668748825788497925e-02 9.668748825788497925e-02 8.763106912374496460e-02 8.763106912374496460e-02 9.313827753067016602e-02 9.313827753067016602e-02 9.303268045186996460e-02 9.303268045186996460e-02 9.136381000280380249e-02 9.136381000280380249e-02 9.088123589754104614e-02 9.088123589754104614e-02 9.063805639743804932e-02 9.063805639743804932e-02 9.524339437484741211e-02 9.524339437484741211e-02 8.912835270166397095e-02 8.912835270166397095e-02 8.765878528356552124e-02 8.765878528356552124e-02 8.695518225431442261e-02 8.695518225431442261e-02 8.269737660884857178e-02 8.269737660884857178e-02 9.628503024578094482e-02 9.628503024578094482e-02 8.978378772735595703e-02 8.978378772735595703e-02 9.494591504335403442e-02 9.494591504335403442e-02 8.660667389631271362e-02 8.660667389631271362e-02 8.759396523237228394e-02 8.759396523237228394e-02 8.145247399806976318e-02 8.145247399806976318e-02 9.595095366239547729e-02 9.595095366239547729e-02 1.006376594305038452e-01 1.006376594305038452e-01 1.065175607800483704e-01 1.065175607800483704e-01 1.030105426907539368e-01 1.030105426907539368e-01 1.012063920497894287e-01 1.012063920497894287e-01 1.116980314254760742e-01 1.116980314254760742e-01 1.139301210641860962e-01 1.139301210641860962e-01 1.135693639516830444e-01 1.135693639516830444e-01 1.064821854233741760e-01 1.064821854233741760e-01 1.086079403758049011e-01 1.086079403758049011e-01 9.977594763040542603e-02 9.977594763040542603e-02 9.529463946819305420e-02 9.529463946819305420e-02 9.321492910385131836e-02 9.321492910385131836e-02 1.008762419223785400e-01 1.008762419223785400e-01 9.553894400596618652e-02 9.553894400596618652e-02 9.522392600774765015e-02 9.522392600774765015e-02 9.556071460247039795e-02 9.556071460247039795e-02 9.459964931011199951e-02 9.459964931011199951e-02 9.552327543497085571e-02 9.552327543497085571e-02 8.831909298896789551e-02 8.831909298896789551e-02 8.821780979633331299e-02 8.821780979633331299e-02 8.611475676298141479e-02 8.611475676298141479e-02 8.626753836870193481e-02 8.626753836870193481e-02 8.350191265344619751e-02 8.350191265344619751e-02 8.971995860338211060e-02 8.971995860338211060e-02 9.436244517564773560e-02 9.436244517564773560e-02 9.208525717258453369e-02 9.208525717258453369e-02 9.596040099859237671e-02 9.596040099859237671e-02 9.427960962057113647e-02 9.427960962057113647e-02 9.384330362081527710e-02 9.384330362081527710e-02 9.045651555061340332e-02 9.045651555061340332e-02 9.333550930023193359e-02 9.333550930023193359e-02 9.078714996576309204e-02 9.078714996576309204e-02 8.770903944969177246e-02 8.770903944969177246e-02 6.725683063268661499e-02 6.725683063268661499e-02 7.310894131660461426e-02 7.310894131660461426e-02 6.733158975839614868e-02 6.733158975839614868e-02 7.862575352191925049e-02 7.862575352191925049e-02 8.386880159378051758e-02 8.386880159378051758e-02 8.348575234413146973e-02 8.348575234413146973e-02 7.660144567489624023e-02 7.660144567489624023e-02 7.215010374784469604e-02 7.215010374784469604e-02 7.358355075120925903e-02 7.358355075120925903e-02 7.660692185163497925e-02 7.660692185163497925e-02 8.082648366689682007e-02 8.082648366689682007e-02 8.099865168333053589e-02 8.099865168333053589e-02 7.558866590261459351e-02 7.558866590261459351e-02 5.426307022571563721e-02 5.426307022571563721e-02 6.521672010421752930e-02 6.521672010421752930e-02 8.515742421150207520e-02 8.515742421150207520e-02 8.964781463146209717e-02 8.964781463146209717e-02 9.249298274517059326e-02 9.249298274517059326e-02 9.231176227331161499e-02 9.231176227331161499e-02 9.238792955875396729e-02 9.238792955875396729e-02 7.976015657186508179e-02 7.976015657186508179e-02 8.310855925083160400e-02 8.310855925083160400e-02 8.280107378959655762e-02 8.280107378959655762e-02 6.977453082799911499e-02 6.977453082799911499e-02 7.545087486505508423e-02 7.545087486505508423e-02 6.202365458011627197e-02 6.202365458011627197e-02 7.343584299087524414e-02 7.343584299087524414e-02 7.417679578065872192e-02 7.417679578065872192e-02 8.399541676044464111e-02 8.399541676044464111e-02 7.949592918157577515e-02 7.949592918157577515e-02 7.929693907499313354e-02 7.929693907499313354e-02 8.436479419469833374e-02 8.436479419469833374e-02 6.789189577102661133e-02 6.789189577102661133e-02 7.560302317142486572e-02 7.560302317142486572e-02 7.457979023456573486e-02 7.457979023456573486e-02 7.969684153795242310e-02 7.969684153795242310e-02 7.492271065711975098e-02 7.492271065711975098e-02 7.057888060808181763e-02 7.057888060808181763e-02 7.380042970180511475e-02 7.380042970180511475e-02
